0.04382310325166541
-0.047493300782832794
0.015474678506828808
-0.02633884965155051
-0.03349219804545699
-0.022263448644785213
-0.011982789697206642
0.0021602054703748247
-0.044813455414744484
0.03464717257516105
0.017910093835786917
-0.05908629562604707
0.05724046899213845
0.07291881446271474
0.045337675813832724
-0.006920185992782728
-0.041182793135020865
0.040555835651197567
-0.015506805652814601
0.04701711809163183
0.008010576079879242
0.03756303986475819
0.01370639989132315
0.0271758910843057
0.0004038469508007877
0.06868732668868598
0.004881234334754613
0.015461129363257756
0.0724288729637021
-0.05183688696701717
-0.04886480763406668
0.03728448877530812
-0.04512013096592923
0.07475466098651126
-0.01590842233691336
-0.028748261978490685
0.07395930871078403
0.05694287659363171
0.0718291907856373
0.034847871472130205
-0.03312406480979625
0.07346403665765515
-0.010307821959668477
0.030863707530630585
0.036432767991298
-0.0059619266573397766
0.023618437321003088
0.03546948736794334
0.014477905044447287
-0.04228464579169979
0.01147069900792523
0.0510148421802704
-0.026714148451206367
-0.0057551746279873375
-0.016736675066216827
0.07112552801843623
0.025857490654324442
0.015671609086196556
-0.029612156709435247
0.02074035351122374
-0.025935871563745234
0.0012242522413211995
-0.02445561839918773
0.02601666519024999
0.022176569869805422
-0.00801149059915365
0.015231027410063281
-0.04204082725886561
-0.05735606125790791
0.016899680817866806
0.006410519052789579
0.024424286034311786
0.09165941441784393
0.036326134115015916
-0.03510854713246764
0.04296216492676358
-0.050611823481212355
-0.017753254031334962
-0.0026246771278704323
0.0658977969865141
-0.028644416232632305
-0.03178609764073132
-0.0037866355548243193
-0.025518395629311824
0.04333215085025027
-0.04153582724474705
-0.044133409708119326
-0.016839232490170542
-0.019155094257396345
0.0742127713006533
0.03651618488176003
0.0033673554378919578
-0.04713213533962185
0.032475499092367195
-0.0384698210534448
-0.05941427295298506
0.04569345355201161
0.012190100458648063
0.03541764706849304
0.012258755882423892
0.032955023534718894
-0.025039445896159498
-0.03977857083786403
0.02621517378006258
-0.03090037169899389
-0.026521145298084636
-0.0175204809045132
0.0006722753471175665
-0.013615150432826307
-0.05288274205453919
-0.024754553955111176
-0.08551550585478565
0.024047363501045672
-0.06161760213872106
-0.04247628228570964
0.0020063492023451694
-0.02844473063043513
0.05934671520795138
-0.04972526575859418
0.010271187282660882
-0.0015108776241344463
-0.04492667299004606
0.02012602540506745
-0.006597935816240312
0.029684251969756437
0.03167323669091275
0.08320138266464192
0.05140492113216893
-0.014199301459324755
-0.009206891445227938
0.042294599841812046
0.02520245118163838
0.02462044331144585
-0.06219061708887825
-0.0009356201691898321
-0.028385804200218797
0.010766330732432241
-0.0037750149862676133
0.03500688108048431
0.01220070058428085
0.030243383158037547
-0.017939196028305505
-0.03632485599685579
-0.015771142046251865
-0.0006546313023630998
0.01458275905981084
0.08689649810349431
-0.0016252750638708728
-0.03676711540356835
-0.013306991373053325
-0.01783061440946516
0.01851851822205624
-0.05926142363248557
0.0024331536230896814
0.006019482229437523
0.00893003985385676
-0.02297369496020626
-0.009150835759077193
-0.054771573422405066
-0.018973841667776697
-0.020879287539104528
0.016001924856208674
-0.04446855507007357
0.030046080834999746
0.05748017478812957
-0.07961480865436664
0.0163945665683885
0.026034924424240213
-0.024516808675085735
-0.015279685166492219
-0.005110791445652139
-0.011453495361604936
-0.011885114194120087
-0.06446168485884526
0.044320444799350774
0.0415237920014162
-0.03128324073862319
-0.05640093568471208
0.02004095678664456
-0.02214569114665639
0.005459737050799218
-0.012281862197888278
0.026597644271930256
0.026721120909846383
-0.027907591479368627
-0.053206305976732905
-0.06088224605134931
0.02347612996566174
-0.045725356068616496
-0.019492936703795677
-0.022935155325019545
-0.002021819087290242
-0.07447230022486566
0.007260715261301099
0.020149654762854064
0.003400849501717747
-0.011957160449941221
0.0037461602411070546
0.015347936370774239
-0.10663818293948656
0.07522739647118055
0.015003589334151019
-0.02509263778411616
-0.015036668276446197
0.018990068359584174
-0.004465536116706405
-0.07810324876082671
0.07940357159074306
-0.0042515637397104854
0.03923741198906922
-0.0266173018378612
0.05909142516329992
0.011013218803549215
0.023417070556748108
-0.040202052544113645
0.046582511141642344
0.02653146786672263
0.05007100882942302
-0.02415721383236842
-0.018501043017722606
0.08861218068015161
-0.040769839335444126
-0.005228834641473878
0.04372659086933444
0.0037586526044175233
0.022421295375126677
-0.015363424202418277
0.014232918763366107
-0.05025103275905064
0.06377425690839185
-0.004544770966483452
-0.026160700153725014
0.025630118539689013
-0.017719991822636665
-0.05131763351549052
-0.05179682714605982
0.02668358279577433
-0.006137439928702574
-0.005142367679555353
0.04145168484524088
-0.043339454182951674
-0.02810299049480096
-0.01480306958389521
0.0036289072814259236
-0.0016219788957914977
-0.011034122784227217
-0.002370246234447977
-0.004127126011199027
-0.02767709186737665
-0.031268961098233745
0.010558321450920751
-0.03426596473059723
-0.044513663815032835
-0.012011240427911282
-0.0060641160063006115
0.08679705758839266
-0.0271038567637013
0.036279258652672876
0.028738012854024303
-0.04572865212322062
0.029740499130869222
-0.04553387077666607
-0.10227585530756696
0.02331998170613003
-0.06753425320914305
0.017343633146381342
-0.026308111451431408
0.06382887677653355
0.04109651535830804
-0.01743791553274568
-0.0264552927318724
-0.046695284734389254
-0.016958562780484285
-0.010782903660942658
-0.014026674784295593
0.006027071356629383
0.022250826835726094
0.013448248345891308
-0.02939015091947858
-0.05529967206929148
0.052481994157787364
-0.026517276328843757
-0.02508821538211612
-0.02004574278081196
-0.07088729039064033
-0.01838361554001872
-0.01844830053876722
0.02385993455167356
0.02686373650412831
0.00014503419562574387
0.035840322081319376
0.013075576300048538
-0.0006031581385597988
0.006189544934547038
-0.007332826676207668
-0.01518651977051732
-0.010297443726691018
-0.043385051210384884
0.010786219435242153
-0.03819706195883003
0.0323704332336014
-0.00959456077542111
0.0019036531403881054
0.018993722164652168
0.024742864040881843
-0.06040859263974818
-0.007957833698614298
0.03385303508003009
-0.06531176228585595
0.014895402899810131
-0.08675247036162267
-0.03932718629367706
0.00148579045539185
-0.06371981162776745
-0.03790425914169811
-0.056609038748599495
0.06338980508490615
0.0063164521341282295
0.021818856840487285
-0.008564426942890557
-0.01359352879835381
-0.06217208417888587
-0.011224513951840879
-0.029288161992754743
0.03299707401124371
0.04388853333298359
0.05640687367592991
0.03279045921004738
-0.02302515142011485
-0.042919114844630554
0.029487045447887928
0.013703569902780344
-0.06802070964142426
0.013672376643991119
0.031327685480302556
0.0022663688146780754
-0.0071174488849746744
-0.031063403369859834
-0.05563594998320723
0.030780690359231828
-0.011889017106604186
-0.00897948698244972
0.06664312257381282
0.0263269656484304
0.014262500049273158
0.005463915584124449
0.05846134079868357
0.06613805028523825
0.03575019659536647
0.02239325351530478
-0.08056165658485173
0.004758535162827177
-0.005004113622834769
0.003613585745598797
0.03627100335855838
-0.10537219873805986
-0.021896617441160966
0.010380936728490822
-0.017955597925106252
-0.054496388966394596
0.03342167257295367
0.010648919455620309
-0.03735017578632634
0.012108354019839377
0.031599450463453686
0.00020356331920618669
0.030790953978115262
0.0030100067369869753
-0.015201114717475168
-0.04459309678461204
-0.003305029498908182
0.007472805309452757
0.03368587544566658
-0.004427210326431797
0.01759290793157657
-0.03710046206668186
-0.030101121377981738
-0.004245742270264914
-0.040562633230192845
0.03154799374325697
0.01781270497379258
0.010734452476632825
0.013034774046767098
0.07773244467249221
-0.01803323799872291
-0.08467081867309838
0.007665392188325584
-0.00194629003698715
-0.019904578558092433
-0.037647302283029614
-0.016891904684698
0.006974554969916204
-0.019339103870866858
0.09278667998245187
-0.03694247621665954
-0.030504513950295065
-0.08802384769286649
0.009672477500828346
-0.07755410106922155
-0.020748255129788517
-0.01060271286771373
-0.02729722945564955
0.06687971836363504
0.03824593812751919
0.05073603370390676
-0.033939185328843026
0.0434074640197911
0.019076959474767778
0.02966945956449406
0.03959380110702951
-0.03495243253688666
-0.01631990849915006
0.03317676966647889
-0.10213919588365127
0.058204926252815585
0.021274310161830155
-0.0017578446407782637
0.008481063682968203
-0.03961289551188372
-0.01345936017650403
0.0423186283930913
0.04992392201254697
0.10370092509859923
-0.0028432563954005822
-0.025328960261730916
-0.01977822945923034
-0.03915545674182173
-0.0029944136900327215
0.01472047807739493
-0.0013170107896905334
0.042167186371761485
-0.009008300051712945
-0.013363486634560127
-0.02235647987924328
-0.06279363562440367
-0.06029875862724823
-0.04535222810144953
0.05005492583326004
0.03443308741884346
0.0528832333228073
-0.05123890979209622
-0.07571633422253925
-0.025386781543618574
0.006762267434462616
0.01918039518883952
0.04030662138338665
0.010933833492585178
0.06702572233290889
-0.008561756959550788
-0.03511843146314601
-0.06466223905747821
-0.03419120608059423
0.009312229268658578
-0.03418154835975503
0.03602855628981758
0.054320296386055504
-0.09113795789333089
0.03323278078837107
-0.08613861764083604
0.015442271349626443
0.04711040631514076
0.0024944656285990838
-0.04921881435400921
-0.022516584779914334
-0.010063286373496181
-0.0070094147611516515
-0.00780372464487181
-0.004226260742665916
0.008210771111929574
-0.046483602066662355
-0.009308454995008443
0.05839466039829636
-0.014794054736250685
-0.017070618967507608
0.041469127065932226
-0.09843017947477295
0.04543763851108792
-0.024303990692506435
0.006304945094330256
0.0037046675354306473
0.03624877381616899
-0.01029210562443645
-0.026077914675555786
0.04991714579427303
-0.0909297621977377
0.000782083911740125
-0.051843285485735406
-0.029291284163713807
0.07735602621012065
-0.001715208709840655
0.007502680659668507
-0.0685216482963689
-0.028040179184411373
0.00755990002803019
0.013644526658200696
0.02372640593820303
0.0003318422660606278
0.020269392632871527
0.017453150485987848
-0.07037463119248198
0.0014232969965442127
0.029534707989719373
0.022687685412866136
-0.01399456961426115
-0.030985634905360302
-0.04301199708929355
-0.005040538905438936
0.04357999536768161
-0.07506938851852316
-0.02538045114344223
-0.04383855597795285
0.03019067389386539
-0.02131960102197311
-0.018101448390568903
-0.008344214228332654
0.017130509649799897
-0.015091884544216798
-0.11715934826153565
0.020896611207212295
0.016886267602770868
-0.008443885705046663
-0.04169371617968979
0.01353000425697532
0.01458598205906103
-0.018078187796187493
-0.008335825791366871
-0.03577525009708928
-0.006868811234128045
-0.05963189788782619
0.016050723885839828
-0.036321865031703614
0.009157813378165852
-0.05407549677953459
-0.022694524841136144
-0.004249592502535686
-0.06387306968727936
0.004428764351542006
-0.014582598572304721
-0.06701369991573965
-0.05012472131201214
0.02327384938777564
0.03444446098274323
-0.005073409222306426
0.015567762001557597
0.008609367819727334
0.012677807004913003
0.04946092334924204
-0.05796147685439508
0.026017720475447047
-0.01469265213760847
-0.00862534362506309
-0.011624989632887309
-0.014428735256203227
-0.04716139199165458
0.007051507663753895
0.06426703972264836
-0.0021589623249521966
-5.327087442675869e-05
-0.026434578352179366
-0.00451825178531198
0.0179294779243858
-0.014240093873243959
-0.017454001578923118
0.01551017462166334
-0.03530787576227098
0.009711408733725863
0.03155083835620853
0.05230571314151863
-0.003476231049113339
0.052599893838719755
0.039784995633904544
-0.03831587078350255
-0.046843788907428886
-0.01172937068670848
0.039574442022879006
-0.0027802695215386505
-0.02310221375606879
0.059701660771098494
0.011034788000128708
-0.08925362599195161
0.012198485626641876
0.020001562098879534
0.0086772559411963
0.017296619239692022
-0.002587523420114682
-0.050707533447874396
-0.014257846277709749
-0.036369838290626594
-0.03587465041516838
-0.04857955188854906
0.0174034266399864
0.003765236362024119
-0.017237129333873388
-0.024974535681938005
-0.0009008886546712373
0.041507489542788045
-0.07708521982688135
0.014495250801957413
-0.020988922077607015
-0.07248407096074799
-0.07483473396784457
-0.035107057466741996
0.008442675222809434
0.015117805153080447
-0.036114675872222515
0.03911619197743249
0.0547301344813887
0.015234099421406161
-0.02274625645415811
0.04324689171193724
0.02905368060243609
0.03336182351365069
-0.025248602883520443
-0.1090213271259501
0.08141503928783367
-0.0619568616711513
-0.0013756950715469666
0.09156712889306733
0.012714490625937462
0.03650947975223984
-0.05778448343775819
-0.0683718059512964
-0.02048856892229056
0.04195191286286539
-0.013317286447973462
-0.030562935425826877
0.007614126536344902
0.041612893018356356
-0.05557462304128353
-0.04655934592782122
-0.030333432865744855
0.04210147595046505
0.009031597151874304
0.08200590040655553
0.03601714330119676
-0.0013498144949873226
0.048656839926491
0.008134500489687616
-0.027112359711824807
0.02615287862481163
-0.026781794379272417
-0.011169119261687184
0.0510685652291532
-0.003895441777592283
-0.030890053359293398
-0.01785914197828814
0.03929963790725666
-0.021251564362181893
-0.0148796479557941
-0.019626643832062637
0.007074057474627306
-0.014826529245215703
-0.06160907880663604
-0.03412234391711694
-0.035876501596401475
0.047819976325198264
0.03125669392727086
0.022586899207685616
-0.01943685835632346
-0.0313765977689989
-0.019519907756052196
-0.04045692702121823
0.09604616890719259
-0.08635852493736162
0.021692635964377274
-0.04940585761509721
-0.004013211211334333
-0.03800007471129748
-0.04529342163394734
-0.04385370388211391
0.06749946745161764
-0.005114939319599692
-0.02945008440300332
0.021376421695495116
0.00039805056024228285
0.02769360612852511
-0.07016371753607038
0.011677073248538518
0.029719032196245453
-0.06390762658132938
0.017238280170127403
0.0652377528010831
-0.0005714501290270276
0.031592536039415815
0.02579117116580423
-0.02721175759656065
0.0015294897917882758
-0.060269027340830866
-0.017357809119327928
0.010218768267932152
0.027811557451453778
0.0009466202018427545
0.027691681928583286
-0.04241946972905268
-0.003911433636725831
0.0007415147889645084
0.07113812487229372
-0.008237179084618625
-0.019192947615160882
0.0008212009170595619
-0.03535051711038245
0.007413609579431392
-0.014040585251779142
-0.06889721338619938
-0.0022533288897638786
-0.01221319592039228
-0.06278551161799936
-0.002582082869789299
0.057282921618249244
0.02005014416445053
0.023535661258890686
-0.0515960279070401
0.018342244958547017
0.005709599283849157
0.020347893782093524
0.01625494698880099
-0.0522992586732236
-0.0015923389060756704
-0.029148879247121774
-0.0019263113186470037
-0.034515420265455024
0.05047962950542294
-0.03303739955555163
-0.03457469832559754
0.0028687079439828284
-0.04142688728476903
-0.016333203939725604
-0.03192171528992161
0.05427584861113891
0.030223224108891254
-0.002210366094822871
-0.015046809699000626
0.036189139022119746
0.01558477232011108
0.019155861718571414
-0.001007393744009634
-0.06493192414505508
-0.004325614713828951
-0.020480381508041066
0.024809818209995265
0.03891701665362266
-0.0253058094138911
0.018014816702963527
0.06676457683406589
-0.02568125848348304
0.06468929769512068
-0.0327917633527172
0.0008830675233827479
-0.0004286773785323558
0.00044226537961778367
-0.03221838622722867
-0.0227378116832473
-0.025681549475361515
0.012575484438632977
0.012693658250396603
0.08561324352839457
0.052730346395812366
-0.01960935546686458
0.012494985222930233
0.03835069156891383
0.0011769932437891465
-0.002678522247959061
0.0019836516449957325
0.03335679341570876
-0.03262771241558587
-0.01252574880077593
0.018093582494095456
0.011978733521313675
0.009214721532938128
-0.01422312178091551
0.037405222659328344
0.08207185566171298
0.015631365141392548
-0.007429873136532305
0.02906693418825164
-0.020735870644345768
-0.028834244027034488
0.0012618749082196849
-0.09933833203730556
-0.04438270629430806
-0.013383148304647917
-0.052053417621065905
-0.03971704238046653
-0.01679801297915413
-0.06319097282810035
-0.015618146009993537
-0.02058731402049402
0.000977123399423693
0.0443916934805392
0.006634785249725612
0.000810077743925524
0.0038251714242581443
0.008745875966197249
-0.03910533263883727
-0.004414435568107622
0.011875047762946659
-0.05272153779011771
0.033294343185225124
0.04159138594069961
-0.024283691863438032
-0.00928222274819633
-0.033776551646541274
0.026899249368762198
-0.04081624182484266
-0.008556808086266165
-0.03303538106952583
0.001959779885049596
-0.06900881813422004
0.051017755475603596
-0.037100247084856305
0.0023036416583183095
-0.008173963260396508
-0.029312096612403776
-0.0341453898706129
0.036015328598171525
-0.02021694588853614
0.01042962248605042
-0.030826803284399032
-0.02489159353260618
0.018163351926455722
0.03578494215811986
-0.006742938551039229
-0.054689225832324495
0.07684446460576941
-0.032944204162854214
-0.059291823064299524
0.09978556106800585
-0.015539703609651428
-0.056220488010054165
-0.02628614487648776
0.014136342154702657
0.007319675292074604
-0.03275881527898423
0.07010475385107537
-0.020060756845898968
-0.04556486886198277
0.03694974609464076
0.05111780178998778
-0.031442042216008714
-0.053897972809204255
0.039632241054446335
-0.07874321588684469
-0.04717775613063906
0.037209467309624426
-0.0021289441547072915
-0.010151436484334149
0.013569869480553014
-0.0058759393671311035
-0.04994948931396501
0.049079821000237986
0.05096207895718521
0.007897406299152296
0.0017359236704619337
0.08998556946230993
-0.010632032500609123
-0.009983730070539978
0.014018509586173292
0.05658930600547455
0.06126041363144168
-0.009945101218337356
0.011858894075359434
-0.05300321027169528
-0.011999081073700499
-0.03231886136458871
-0.03872429816534553
0.06467602754874337
-0.030472563915620962
-0.02044638107736365
0.01407110722757147
0.049916356422060985
0.01850442793803213
0.10612904284698393
-0.0028718453173519065
0.009950632316528695
0.010600025922463707
0.055194207184198256
0.019509190427292895
-0.004470373091813427
-0.03644186903487998
0.009401671383139715
0.053897878126613834
-0.015783915140687332
0.020343985323714703
0.009467222641724777
0.033212294553127485
-0.03095206694761036
0.09025565502025237
-0.049198504116471475
-0.014059657307155282
0.03608048234252483
0.011412814326696668
0.031922544580042435
-0.019080858999329323
-0.0028771147184746566
0.0004704609091852841
0.06035613902061171
0.026554962476271118
0.030641234937102746
-0.025304849712953666
0.03726471686780965
0.008676217829569366
0.053428665987612596
0.07746385211224878
-0.011798683693346329
-0.015627043478656254
-0.033232499657783444
-0.005522288912166175
-0.014693286498091677
0.0138270922911927
-0.005560262189759075
-0.013907664645446917
0.04094558215876353
-0.03607231658274814
0.016657998198128604
-0.015613143353403209
0.02786032711038325
0.05327929025854733
-0.011657625131695104
0.01696280412589044
0.006876648682045379
-0.030747015367042177
0.009261058066997632
0.011120019433800468
0.01587964694023749
-0.00763072680077099
0.0036227807811594834
-0.04413888249396675
-0.0137736182876868
0.021383179988838385
0.0343259187435204
-0.016242877850971952
0.004027462670510936
0.008771281735541047
0.007749228719401265
0.02079898405001501
-0.06992606270706037
-0.0018970796210604844
0.009193600047952496
-0.03847424419052713
0.06438406565425808
0.006213817970698768
0.060130951731881904
-0.030404731608964508
-0.03489615852020489
0.008625085421756997
-0.06456493703187141
0.008267907331772828
0.003739201230881463
0.03906404929008082
0.02696312850634989
-0.016056821149424385
-0.04221140979885557
0.06585789312858834
-0.030465962329428848
-0.040212482964210226
-0.04172523305620943
0.04297328136679479
-0.01995770017018662
-0.028988633314638496
0.005295762534744128
-0.007959411944511193
-0.026080594645624882
0.028999671806864604
0.040973672772999806
0.03789682726691796
0.029496910371584577
0.0154855973511552
-0.0683033846139165
0.06420195409142188
0.011614969629136652
0.023390631830793904
0.04288316626720778
0.05512894241853815
0.016092231204199715
0.016751775357525138
-0.023047087594604592
0.0012726827361061615
-0.032852356185167485
-0.02769002046699595
-0.03436824624285351
-0.006000918884511053
0.04034973799692347
0.12196056820346846
0.007288447597996672
-0.05186204183677385
0.04865320499447139
-0.011568610633693351
-0.025408022845268923
0.008071133766271358
-0.0477163307521626
0.008556275538792568
-0.0033990585845828838
0.003783765646749064
0.014669855931121956
0.002595856047723339
0.0006283878504958651
0.010935173807613252
0.015976947160427957
-0.039672402319817605
-0.05499966379559417
-0.002370694314315952
-0.05510521115131185
0.0033665950354488795
0.03610564906470424
0.02335044891984792
-0.04031424641636435
-0.0330870173829815
0.01262697288464444
-0.015434530966673464
-0.012179049809696422
0.022957941586459765
-0.037972565132986635
-0.015432104227353171
-0.03077240292633082
-0.04012036530905214
-0.03296454571812172
0.026056237282554295
0.0019930919031700602
-0.03381387033981057
-0.008888523368961405
-0.06303105027392993
-0.028204338753217914
0.0826759436487418
-0.0034709172948365614
0.028140727962707404
-0.002518783659403192
0.013391124432377256
0.02550992652612208
-0.04248525375101811
-0.0011898560489984208
0.060725584400634164
-0.030596175002049655
-0.021786148220469974
-0.011834279898730838
0.010347079737547948
0.02018914860176472
0.04874660210840988
0.019211470518025364
-0.002386658684551309
0.048429504985031305
0.027081193159291625
-0.057526135240654475
0.09716800924446148
0.06807389954602823
-0.0064697777987336195
0.014535003913018272
0.05093687499983997
-0.006623107411418563
0.02809045347603921
0.04248378744505679
-0.03903176568209389
-0.023166609753187007
0.0354387845311762
0.017723633736493483
0.03553063693515181
-0.005098769794373771
-0.01111558503670127
-0.07687074906089895
-0.04407693948105551
0.0018102344099420653
0.03171373921400909
0.020429937174449818
-0.004932383616450078
-0.010452752557334489
0.008353062793780005
0.003008122349698161
0.054020981343835074
0.005632337326086533
-0.05697099854604994
-0.048944543655089115
0.058413820652445395
-0.045044633132695404
0.029403748193597447
-0.010322028277283892
-0.006529165150095596
-0.005158953183400774
0.04697634459458455
-0.007416993405537103
-0.001281510878659729
-0.05887705759228818
0.007949635065692434
0.02042471180684845
0.009197906948222579
0.053765240811028285
0.002121975183855067
0.011499132927654523
0.06340400039492997
-0.059615930359928765
-0.017531744146129572
0.0548522596930487
0.03600496724273394
0.026091542263095013
0.032025028440941475
0.012579469581577773
0.06275374721277968
0.014529198835796842
0.009225657919049177
0.006113795158678588
0.007417844444245617
-0.04450066464676415
0.029641271325513207
-0.005016912837820282
0.07007365761001562
-0.0029096334841701116
0.01618916477598679
0.009484699471589786
-0.024059885965740515
0.0381591087891733
0.07327167848307761
-0.0005683546023017223
-0.011556876368670088
-0.013654951194437465
-0.07278314974297467
-0.006838967065500483
0.009653773692627845
0.040567612506933956
0.03692491312115107
-0.016019195478334327
-0.010647038260534166
0.043227127139016885
-0.00667168834895689
-0.019616520759831422
0.05355840190131817
0.039907141040409
0.0007227612220868385
-0.022837594145333366
-0.07738001227864266
0.02268090790672015
-0.03447575855969924
-0.0754896926592597
0.06095463566726992
0.024921838115764938
-0.04380800742757559
-0.04670774549843304
0.03349853008352383
-0.03376810063599501
0.049851917981841666
0.023709973562544433
0.020638327714108597
0.015565209831319244
0.007363495077842761
0.03386581535296579
-0.017464629327523275
0.0033058451320917186
0.028921022602969068
0.02165345071485107
-0.045961030971871555
-0.019246525665548613
0.009723211746890559
-0.01569287342461142
0.06825609849897436
-0.015121276721312034
-0.006239171060641956
0.029593468391434764
0.01271279781672753
-0.005587479123260355
-0.029095904956951857
0.011596694515260238
0.03996524770686126
0.01842673938839341
-0.02993013544062009
0.06679903680679657
-0.05563761115522671
-0.06087252468472266
0.03694450863297032
0.00868617225394962
-0.02113455947323232
-0.0422527202905896
0.08926153228001148
0.004503495082901614
0.02054619887868352
0.012226349893776215
0.016723382989659922
0.02077286386633869
0.028170154221341392
-0.014431630798487412
-0.011216999475070946
-0.0669624157061116
-0.030011707942366902
0.010427415247950572
0.04019320675010348
0.023039981783699388
-0.013103551687612711
-0.0485835735417367
-0.10682150559336283
0.04429746056849228
-0.022662653327313455
-0.01724865408477151
0.005060537227233412
-0.054060001822765
-0.01345316077352065
0.07782584422192208
0.019437959176051643
0.013817275250517555
-0.060865172230067634
0.08629238056087078
-0.054722881101013185
0.07393556751709225
-0.08134830827645415
0.05405251687401617
0.062232856500008676
-0.03170804312799364
0.01625309124126472
0.021056945080948658
-0.03129978781658869
-0.05573529272065117
-0.050681436274644824
0.020808008459992602
-0.003273677019977144
-0.02170388589623694
0.037183385044863855
0.01954107343813376
-0.029056258706370516
-0.04620005842374574
0.02012545148800296
-0.020676283406079306
0.0038155716358270167
0.06062688356260453
0.01932031692595306
-0.03316411537512449
0.006179276531529724
-0.03664019049289953
0.06186623676725861
-0.021599182677046958
0.007971951806677641
0.01183586825690123
0.006125018014373171
-0.07532880596678995
-0.05563157938397418
-0.017398087521888143
0.01228583974352041
-0.005299200549452718
-0.03681336435196218
-0.05186247381237311
-0.015444520942282448
-0.018018309410758583
0.019724479138182947
-0.012550710083012236
0.02318106370882037
-0.02287114498924636
-0.009844525739010321
-0.013386399217023824
-0.030091037188541916
0.024043025247451163
-0.03129215373440412
-0.020063134998869962
-0.002812294074930663
-0.04989921753679769
-0.012497498396942275
-0.027357936913184177
-0.014929007403163446
-0.002304923179657332
-0.03076590858233326
-0.008464453070013677
0.05033341355200689
-0.0009922522405571967
0.04404854511612403
0.013326709307952336
0.02977540806995448
-0.029786883414262534
0.004034890964827413
0.005150497023672151
-0.023562528418266757
-0.031647243242087765
-0.05731789953489609
0.05754383219044739
-0.03740011112894222
0.051777733585473086
-0.01798050667914821
-0.03317281922018207
0.023943043857884528
-0.02427661314410989
0.021863804574010652
-0.012800452494315754
0.01847786523529949
-0.03723792553488865
0.03197504069172186
0.018768180102423253
-0.035371180387025455
0.10165137388518238
0.020773962553865155
0.08809488732809766
0.06154876225956766
-0.007262876162222454
-0.015856605946328574
-0.015517660900800048
-0.0703857134779927
-0.026762889205751823
0.00949100092230656
0.058690675418646476
-0.02972199549916162
0.033925253821654254
-0.04817666698089689
-0.02255077020042817
-0.017601561318827924
0.014300426211442058
0.01758883256618505
0.03701314403132097
0.029647575400189873
0.009352623669326605
0.01501403628879317
0.06109733427298202
-0.019651006970471657
0.029797243041044696
-0.06954399717300967
0.01582054780375418
-0.018586520864581055
9.889163198115483e-05
0.04000331711745012
0.006332454212553755
0.03404567466188182
0.05668326212070788
0.01496515264868156
0.04504004094694186
-0.012560037603046451
-0.00031576470267746326
-0.020100746784556846
0.04011452287101446
0.015926590530522887
-0.019509017765189332
0.0059488012940897
0.04006032264686853
-0.0015103073476135842
-0.03649741580191398
0.005073529068746624
-0.07617559965649769
0.029568101707672115
-0.016204907204795404
-0.0180504129338118
0.03368060302998103
-0.05250626450866034
0.07488840933924454
-0.018470847759162436
-0.020125036284034427
0.039277874737198584
0.027257510504247177
0.09427806611827216
-0.00812330706275077
-0.0046310245640157595
-0.05689676846012514
-0.012773164513416353
-0.027747357521990607
-0.017260269734826892
-0.06708414448284443
0.0638695215344044
-0.0544847493240631
-0.10777703070737359
-0.0457086315993469
-0.023224598184467347
-0.04421361781758147
0.0422424438743274
-0.0053015068690805325
0.0009763694002484227
0.023476606319438955
0.011000481806850692
0.03763720374792473
-0.0426722136013902
-0.021058388487670453
0.02561412100267453
-0.09748286392631654
-0.052891710742970804
0.019268932006921025
-0.018471116730574055
0.03600413654268068
0.03112231910973703
-0.04608049539196301
0.015640657210264662
0.046219148294904096
0.005670553909652766
-0.03759480297099497
0.033822690073591156
0.024439404867461368
0.020869645519184476
0.027536111286038143
-0.11517741770106227
0.033882213887729676
0.06954353117611445
0.016793787485742038
0.007412653711527955
0.026786102822747668
0.013008672064812127
0.02506851006540831
5.657693251580025e-05
-0.029488648251419242
-0.03862779662363898
-0.03839198954737939
-0.05280932888272674
-0.04106700042381179
0.06774100490076397
0.02900367937139395
-0.024039515026333513
-0.015015103614827234
0.004329135804094396
-0.025213270364783005
0.002596802199012495
0.02990785145780431
-0.0013747205210835956
0.01292368241007662
0.0340958284369083
-0.010466606000700316
0.010953484582090892
-0.011899138187821592
-0.0010972642244006308
-0.012489625580113847
-0.02034114821369674
0.006681225114885517
0.021790204454546633
0.0056270940769632405
0.01918180608892046
-0.028381991547739613
-0.04629750739229921
0.016040134729523214
0.026456976583644407
0.0019175871769162558
0.05184753001633534
0.0349114922303038
0.10309887849111542
-0.007723404384448677
-0.03841726138828339
-0.028466799643827447
-0.021749915629794475
0.018308899363004404
-0.08300263707543296
0.05071350069580141
-0.009203715043936314
-0.009492059914951992
-0.04151319869326905
-0.004393290440391546
0.0005092218333666751
-0.004690189523087587
0.013040740613170402
-0.022678155459654993
-0.034454452323493354
0.021089543480691537
0.003794902069838295
0.007583886738360285
0.04073181747853717
-0.03932939966387253
-0.032893863740417854
0.048354601954961315
-0.05703397529130933
-0.050362005628115936
0.03145622427634599
0.009161545847001486
0.004047389886895225
-0.003525361850014738
0.0012025979625988263
-0.0035427736419983047
0.052132411638246855
-0.015313389567310582
-0.006206674472222277
0.0690172617394259
0.0010580654626859923
0.08584678421250684
-0.004037680808421291
0.052592883940775326
-0.06366707839652608
0.005909402339064092
-0.0609412908904206
0.03247901179248409
-0.04664876216188557
0.010914213630128674
-0.010853687565016736
-0.044546276353231884
-0.062283076265290095
-0.01965540244538884
0.06694728638058965
-0.011287886726514519
0.03527775161984062
-0.0021939564485456984
0.03372026052655586
-0.07026582224248146
-0.015507242571135898
0.03651559706896995
-0.006279036493583798
-0.0033252031811941206
-0.016556227380222808
0.044206899360274
0.01144285976749792
0.0016931644682826143
0.024732867128434338
0.02262403573530526
0.008176424862982177
0.05950121142272479
-0.002318751293812271
0.010695424921843999
-0.024728944359726557
0.005773662577158815
0.06106775091328337
-0.02474067699187457
-0.04359972406301765
0.03833690933922368
-0.005721775085910741
0.0036924694219142313
-0.001735127065128262
0.0030431432280590416
0.03271271859705532
-0.032274007330741296
-0.0389143878502111
0.0032680052706810644
-0.06178614190191665
-0.052809751386228024
0.07179550570506259
0.029133397310053998
-0.0003867873795774823
0.04761565138301692
-0.04002304731096712
-0.012138581668686855
0.023978984977860864
0.034256603131976725
0.019727571031837553
-0.0977399541418548
-0.03723392760248377
0.01834877278295636
-0.013690442040261784
0.09770121618304506
0.035636857729503715
0.02146468771610253
-0.04295959822102783
-0.0013575669078044446
0.00927707554688279
0.04337629346645394
0.03388965758075509
0.03973035363538253
-0.035535077531153925
0.054313526857639655
-0.053093490473356514
-0.020612098525621608
0.016568120574832364
-0.005765061220505359
-0.038693725304630444
-0.0315980702155051
-0.059548243186501634
0.02046056303873813
0.048483417117005746
-0.0038612885923602317
-0.015398031346670131
-0.056627804941018836
0.035123150932776064
0.08505016666305742
-0.06913291555257299
-0.040901266852100264
-0.026138193944005544
-0.02170453498778804
0.008744075005518501
0.06208652104923952
0.03879220334077322
0.020292207029781382
-0.027843411694561622
-0.04306262437232517
-0.030645204088703883
0.05954103082225918
-0.0023747423637654258
-0.01718600975625466
-0.007067528086538164
0.0317160853707103
-0.05049421825191507
0.05441823599701625
0.006018317574857652
-0.008320922242143312
0.01703254283641304
0.008399887428074501
-0.013238325248745433
-0.00971964123236949
-0.033417790264075084
0.025245798109973173
-0.020461300361967763
-0.03677917009354934
0.006379366255905282
0.05112081856713667
-0.0018594086069161392
-0.023388509882757307
0.015534462339845147
0.07448894086163663
-0.055842520362759517
0.014700107222511293
0.00788794712430207
0.04467437705996605
0.03811189129557097
-0.007181119684991509
-0.06478912520864934
0.031021683380625373
-0.032122795776595506
-0.03641309272912267
0.04416733002658178
-0.035032706832255865
0.05395556692693244
0.012917104669435117
0.01227378461870317
0.011817876173291964
-0.06301629329776123
-0.06832263909025292
0.00829050206879557
0.021846436893323853
0.003177347390623116
-0.03159748142382798
0.0007277732262382592
-0.0031551597363647754
-0.03681377301059271
0.0389989290043139
-0.06654907929038792
0.022643938723365634
0.014781669431201743
0.03883507133891209
-0.03866584124418688
0.00390027487185427
0.08350634420454485
0.025464395730757938
0.003868508028037046
0.020736972081315252
0.003314493937696924
0.08426530820153232
0.037832161376506905
-0.003292882855019119
0.009705055053250818
-0.015030692156962061
0.046532697169627116
-0.05408095274580811
-0.06172071268696105
0.05610441344907668
0.08281229971425319
0.018011727218830452
0.004336074662912972
0.025279526550183742
-0.02488667409164459
0.006586290198162019
0.0014964886867775012
0.024098625028667716
-0.059923020314746014
-0.019501337298666828
0.032499830884647585
-0.025984377985771658
-0.03820620674704367
0.07854123653180593
0.001466076929976937
-0.022266082305507997
-0.0650911706720811
0.028051782549247162
0.026889852066103608
-0.01149075386807446
-0.04239346888104195
-0.000944208601629963
-0.03214831028775467
-0.03623436880281215
-0.0039697212100656765
-0.040438092256156334
0.009486498278940238
0.023384327284861433
-0.032293555660507366
-0.052624811359168876
0.06004921534445412
-0.03616423984450788
-0.025382411734705297
0.00819296797807259
0.023052668173934504
-0.009858342064986262
0.0177228587577406
-0.015422544534476963
-0.03735271787786119
0.054858340799501054
0.09570929285888954
0.0652295974236219
0.005454101505902095
0.0705167446852184
0.01368090445092248
-0.018357164246278052
0.01793767593776842
-0.0036304810158148066
-0.03781223783637337
-0.034550845055077536
0.030848143797712155
-0.07102046083325667
0.023236028478564777
-0.06267629241340147
-0.08158370941932447
-0.07072486937532688
0.07564476815133615
-0.007547460190136231
0.0033301223140545805
0.05458673253503659
0.0359299903269125
-0.05351943343862384
0.03342332087764466
0.007083894796290242
-0.013141465292149254
0.0009342659283761688
0.04922353925492392
-0.034075633924652036
0.015418679965543122
-0.0003714321743426287
-0.06912171597675457
-0.0308558912204158
0.0074312905089883256
0.04989777265741887
0.03851273143641268
0.02296971170782404
-0.0313567561975561
0.06927746118494366
0.008278479524600441
-0.038706366218405786
-0.007034806956036577
0.03447109328292921
0.0002929807045445426
0.03411018025318312
0.04244976759469809
0.015405026330719468
-0.03298856242488054
0.005209794738076175
0.0017371483053396542
0.07151332053275494
-0.06255084376257039
-0.005185478888244387
-0.022465136415189206
0.012888677699846111
-0.09375247535382139
0.04288171382654923
0.0005287879744436022
-0.07095004475492486
-0.013888966720764083
0.023421628525174012
-0.06120953367146275
0.0001239314016598346
-0.040672063376981926
-0.021384039687652588
0.001028399333639882
0.007055778983906781
-0.018105480699335662
0.010492168828087083
0.03146067720210791
-0.010727472119355378
0.05506029836343427
0.056239006568477676
-0.016488540984070342
-0.024532329095137858
-0.06400665327562206
-0.00486805121689961
-0.01397837615830967
0.02996350846665352
-0.0580639079257038
-0.010668899682427301
0.03725939973504405
-0.028090657521459998
-0.029321597566446513
-0.05565155133676187
0.10079130176993228
-0.028748968387129977
-0.05001333970070535
-0.030917323231981538
-0.029780580018723253
-0.010361145325047704
0.0317450858495198
-0.011473968038301297
-0.03549320442295492
-0.055820711468885585
0.0008406676238412067
0.0016361182319150278
0.058882013501108645
0.0035556821334541766
-0.0038080119724645148
-0.04040976294567268
-0.011767406734553535
-0.016864402232100235
-0.014237083250527022
-0.03689443817848417
0.02070498474139142
-0.005478669904206515
-0.0077059030771149005
-0.06592485061726909
0.018986311058648613
0.018731358691553058
-0.03227420780162361
0.0380815916876613
-0.05249070115701663
-0.0008411503380415337
-0.010431051534237073
-0.05066056880022286
0.007296254310769068
0.06548346739391506
0.0026013165410353756
-0.017808529004194266
0.01719323680329532
0.004066153671813652
0.0010677742932885188
-0.016367008183517235
0.0546913676650948
0.017552437056953286
-0.020333486882134176
-0.004153993722344536
-0.02849487323861818
-0.02339581346467289
-0.024643297084238427
-0.04362736898931644
0.029895267837229057
-0.011193902433577915
0.02131259916641422
-0.025774072989511405
-0.002321634399705333
-0.027347715261196587
0.027679545020666604
-0.009554588719424547
-0.028110522536591766
-0.0631424318772994
0.010602559590029785
-0.027245578936081045
-0.0006068929661921221
-0.018912696462058756
0.03669959926533711
0.020928644321461846
0.017200464902108904
-0.02369696628167228
0.017934232444238057
0.0659550618721555
-0.03200715515961777
0.006628428431891877
-0.06343142209296662
0.05379084969713598
-0.015304311484263132
0.030099187724691442
-0.06627800964293551
0.06913613027407325
-0.013725828000984557
0.0209868201334626
0.0058007002435613
-0.009825799468760364
0.06483816548689629
-0.06338639255254538
0.011488986922769576
0.03502483354730655
-0.0011483123706294718
-0.004545030167945839
-0.0054879889259025014
-0.04721678540040031
0.001466437849805179
0.019719904748938415
0.002638431826179251
-0.010472157736349255
-0.01883557778357795
-0.0107421795876297
0.04837477759600147
-0.08025519151617472
0.001541209867222133
-0.012605958357554492
0.05599261353218629
0.0021343163632231836
0.05711252302692132
-0.0816880776171369
0.017676342493617547
0.01077145615529539
0.05348207565668993
-0.06312879264703959
-0.0059629156968586845
0.002540779299480484
-0.01906905748250805
0.046791450528574634
-0.013026237901746061
0.07826009784696746
0.04054530418995857
0.03657052680783845
0.021511499284264782
-0.040911368885598
-0.01658062836579835
0.022028898725277534
0.02605988590721989
0.05027630173389452
-0.01797850037022717
-0.03308282249710243
0.03304246895328964
-0.03113948369385049
0.03358891677193893
0.04614369909288607
0.017544347531809824
-0.01375303969109992
0.001580085620918445
0.022825612292432275
0.00039175071969513325
0.08454985917963434
-0.0381027281010442
-0.03856417643729965
-0.0375728994898202
-0.02267615086712368
-0.08380505846903498
-0.024217324113083895
-0.025126334689534194
0.0030197701990067804
0.0160692532002339
-0.047700628323375786
0.03461747087554125
0.06931700883809797
-0.008010965503653706
0.060552739902906605
0.0076534420925072205
0.07648968917674581
0.04297244098800732
-0.060150178263067934
0.0007164373331290561
0.04055096057323376
0.001174868501562188
-0.0014185973401948826
0.04883710578131938
-0.02730208392869631
0.0006736774337776283
0.012447144792658411
-0.012838113859752467
-0.0007741963029822106
0.029808587047083474
0.016647600826922845
-0.031104520460751295
-0.042466307146125454
-0.03035008385602501
4.80175303264079e-05
-0.006151530298347801
-0.03199836512373557
-0.023005786635249454
-0.05846304943046399
0.01607129627758946
-0.001539181744293574
-0.048453359361741166
0.0011007886226070316
0.05163930809655205
-0.028459071267894605
0.050582217912345094
-0.012440672018593224
0.007608775686533378
0.0037596462470071267
0.05390474676943252
0.00609360949175122
-0.0439192853539941
-0.05042193732466201
-0.05895850205500492
-0.0658450063113162
0.0017744253444494204
-0.03686055693179083
-0.0031081389593746525
-0.02707150138424795
-0.029645550027175588
-0.018494051572028044
0.027060982870899555
0.03573635183725735
0.014275867409578431
-0.038070098059504585
0.02475504905589763
0.026496025638766626
0.010563353985094021
-0.023216170616118872
0.02726382982181309
0.01626225287217929
-0.11987909967688946
0.024786616669655474
-0.0736054873408272
0.02552159909966852
-0.005925861477878281
0.04590814156727685
-0.0037754312002280977
-0.03410054846369663
-0.00566744863780168
0.04076178057437595
0.0010094853023687456
-0.004397506148937569
0.028598212134936036
0.00809074487037742
-0.00022797714743199253
0.0525407718616666
0.05981207815611799
0.023589470243411584
-0.010998428903275882
0.05757349975080105
0.04550459835891181
0.027649890981857373
-0.04677217618253311
0.005410457819536959
-0.028602775950033583
-0.006115855829013821
0.009232958819104567
0.003852284926562442
-0.018275965608817252
0.04895975957384272
-0.06523581795505935
0.028083981966523633
-0.07144166429209761
0.014715312950902419
-0.03411170485707214
0.03378091375894348
0.003325097077215133
0.009527168402570165
-0.039164589444878904
-0.025175774422983997
0.007969899746575129
0.022444997188819385
0.11265754776014852
0.00857147396551872
0.03753990482188176
-0.05988207432727926
-0.051149686974387036
-0.013672875946478924
-0.046054911370714095
0.05716920205639941
-0.015777642030012643
0.05316084186127456
0.0571839413109858
0.0016453738416756499
0.019299990531063037
-0.0021576720515731887
0.020709115398251488
0.018590071222329686
-0.0047557548420011815
0.019421922363955398
0.066296010602587
0.027423701142728376
0.01253075437079329
0.004798827732431247
-0.038948966298791965
-0.03951141834905625
0.01243678967231764
-0.05266888938642913
-0.029474138421676278
0.04928889770631282
0.07362421911780055
-0.06407523372298918
0.062563444703907
-0.008132241955598331
-0.0005771187319755695
-0.004361985793951306
0.04155938950098028
-0.061833714578583734
0.017544754282889746
-0.036341161438000424
0.021953404976214376
0.05933832070357892
-1.6051015870006416e-05
0.014390580229646253
0.015751991470680436
-0.030753596141172696
0.05813997499555071
0.06563339412542266
0.026991668158347273
0.002818670461832518
-0.017765146744395565
-0.024095777813426447
0.06580140702102522
0.054400578566500914
-0.002448518799598055
-0.060766558833504764
-0.10892353345803797
-0.04167025616401076
-0.0050238613844276695
0.05387265517088467
-0.025063700348376183
0.019415979090019297
0.05012234467878587
0.004943704494463391
-0.005478764184186205
-0.05033705823994646
-0.04624905031555511
0.01600383209291628
-0.007727212815420259
0.0047127429866654445
-0.00181837368062489
0.025544001898409635
-0.03018028505497866
-0.012906947830121805
0.07293008571665939
-0.030761005322529646
-0.01082982426154239
-0.022668719306868052
0.01710697547720193
0.03932278163238729
-0.019161985330234988
-0.016592859273257127
-0.010730061742424243
0.02037822244134453
-0.028438280865776745
-0.014459998691202276
-0.09123822582742368
-0.0531440388267302
-0.004324759846895701
0.034533237430889284
0.01134906858853317
-0.0422603252564346
-0.053856008004920845
0.006718465111468029
-0.0635693708558786
0.04099718533526496
0.002457545832699164
-0.06182000612438685
-0.03715207149391807
-0.027858127662735495
-0.02973817347013226
-0.05730511570082663
-0.033640866230340204
-0.02632313677463178
-0.02735714444655532
0.04338294711282233
0.0040318385702774835
-0.03820220067067509
-0.012870061767466233
-0.03382911912736093
-0.011538717654298347
0.03367342896697628
0.009702722331235591
0.08790773775107949
0.014458747144903084
-0.03513825038373489
0.031143874262094133
0.041535816043943685
0.04208334582476707
-0.04208619050134967
-0.005678362096724519
0.043531229108786644
-0.06479726764899774
-0.01920833696238609
-0.054882218670268906
-0.035868085765269744
-0.03894065972091563
0.04809883971320904
-0.009020693650336553
-0.03320598389776087
-0.03983098966863441
0.005448737110443473
-0.00042829335925642723
0.05169516825667027
0.019231411379127022
-0.05506914531019375
-0.024191565676587246
0.04115663507965297
-0.023887796065437592
0.06671431442014265
-0.04224190120479795
0.022023590501568855
-0.033123675130716984
-0.01959981280562913
0.04225314031658256
-0.00488719857071219
0.03128662481208104
0.018203484419799982
0.028994833983165415
-0.034161085041750514
-0.00852209223861541
0.01631740838849501
-0.03265664894975617
0.0626730785858588
-0.02989338623673594
-0.011538599112992124
-0.03871381018439375
-0.08243492558610341
0.06911225086826647
-0.007859189880886432
-0.01722749378521309
-0.0076428869873384105
0.05461015277678599
-0.037119484925554516
0.026137225606349325
-0.016299548021133706
-0.02294887905916576
0.021809931250776248
0.03800925283625758
-0.01976549808768906
-0.02957112152595423
-0.0449652210508472
0.04244245256647598
-0.022125230569466078
-0.07112041258751736
0.05422892839985178
-0.052686903921267014
0.029979251202271597
0.007054947948750952
0.0110736704698184
-0.022475972127358537
0.01406121000863985
-0.06414538049554759
0.022616836489992805
0.059885001597390776
0.0340010460548587
-0.07767461866872005
-0.03785419239510955
-0.007222881614415651
0.0187283578823051
-0.004102025910008658
-0.01896978411963453
0.022896165680472803
0.04477506793172947
-0.008934384891792206
0.028035764130201514
-0.09919425943036442
-0.03605805331187421
-0.012356112963769598
-0.01879100849056253
0.012799931438632875
0.03899040567301003
0.019487270231861097
-0.023931748913655994
-0.058568003480930234
0.02142169694534181
-0.07069910537192355
0.025116818592554945
-0.007248041620387241
-0.045224422613008804
0.011048358171799721
-0.00011061933303849964
-0.0014075881890864195
-0.0032393575587459245
0.016135542631774673
0.0355551546907119
0.019100584557071216
0.03892819960855037
-0.001697681494146394
0.062248435547383636
0.021965762389608564
-0.020911308833952955
-0.042072886797477116
0.007915261682079998
-0.05025082780471542
-0.037437537213721096
0.009195656937446126
-0.023380286395459776
-0.03589677847026625
-0.0013259633110922406
0.0027953038116842266
-0.007916693277643754
-0.014521035348434175
0.032870874181248025
0.013170282741801062
-0.008593312007488309
0.09478161282751406
0.007455066804938965
0.04353865898758961
-0.02157619242814448
-0.05242080566184653
-0.030452173678594787
-0.010308068592235075
-0.01910031575882758
0.05139946855087668
-0.0046169662344656935
0.017748802978505382
-0.0017877367704957816
-0.01667516664358337
0.0014613851328275
0.06592505652964353
-0.02953648429756981
0.029499632713828893
-0.039461817370222384
-0.017677940087286115
0.00013781561363783259
0.01255288806642272
0.05704340876822362
-0.0019262554409436698
-0.032446754097535634
0.025001614348106528
-0.014006531112144461
0.009180060420455207
-0.004470093828375071
-0.07474834043410856
0.019549968676691277
0.022437231031588414
0.03563864493494636
0.06924856778693184
-0.045965529748595226
0.019865670933913827
0.015742115255421362
-0.016118538184916237
0.015273316786529954
0.019217190581229462
-0.04687245499912296
0.0094701062029397
-0.035307088692485215
-0.02507140384348425
-0.06825941596879423
-0.018206189442403032
-0.007829641210518346
0.021148341049861186
3.4612564273352104e-05
-0.05931877503075687
0.0331595406493949
-0.004561023982695858
0.018783484247294518
0.03715138917152697
0.054715567268039805
0.07543180728326983
-0.0027784137950641525
0.011966324849755905
-0.04147542656987615
0.04083077577058697
-0.045572594021991146
-0.0694327572550162
0.03193792328232276
-0.02006525095953136
0.029907972359316942
0.01569517882100649
-0.06269240965475803
-0.10460305247394672
-0.042176990272796894
0.0006342879608024823
-0.04699139748826046
-0.025106209590335115
-0.05611310502297406
0.006533767684497094
0.003493304886012508
-0.018515100924908972
0.05373328081975934
0.05760442412767552
0.021741046251401965
-0.06922196851795172
-0.04248808258483113
0.015658858887817238
-0.02417529154786884
-0.018734285835070134
0.034575669022617696
0.01964903161124683
0.050544401300536494
-0.01650804987101836
0.05289328540180374
-0.02131274027248022
0.05767274962072166
0.004070563216029949
-0.03309652873498493
-0.0627392118328282
-0.011595089033142046
-0.009855103769055342
0.032986996543171235
-0.004253480877238742
-0.016631999176094026
0.04142451819028987
-0.008647175433467364
-0.022163146777957814
0.022100342972791263
-0.018839546878741033
0.025338543911212038
-0.022958350453199786
-0.00857535319116844
0.005852960599548706
-0.014389473856319458
-0.0005173642060534492
0.03136430650923308
0.015792376589232604
0.018498840385947058
-0.0244396322545872
0.03280114493362954
0.02575239771188779
0.038631507394677876
-0.02793714739177316
-0.00663302294928681
0.024366688556169247
-0.023415966054505053
-0.00869701806784447
0.07406945144075104
0.07506773124106976
0.04769002114720616
0.03609942831729878
-0.03920196728865883
0.019713931977927784
-0.013812176733303278
-0.040714303754052605
-0.019577147638127693
0.004448656694090253
-0.021052137473025635
-0.02118459329641693
0.03046313455472978
0.005542557120124301
0.008979156910089155
0.004302784496011475
-0.02598858243737119
-0.05271430453694955
0.011944796554633787
-0.019501408927901687
-0.0773377795609953
-0.015098740690967402
-0.04200838235925475
0.02687116285799059
0.02006250874001308
0.0191112748014796
-0.02557852377533427
0.028136599302390538
0.012294222428233578
-0.01576363609383921
-0.01743605508225065
0.03433492895668078
-0.01821554065244839
0.011679095135626089
0.03976757641587629
0.07343625482911957
0.06399512017068192
0.034647029392654995
-0.05791966736813028
-0.026501862669921973
-0.02108027644125137
0.06358268586789696
-0.02689684388354196
0.014852552965321892
0.0038795024329735307
-0.035966431132213234
0.014685538831514765
0.015319080238365097
-0.04829903391313468
0.047033747963592686
-0.08025038572519953
-0.022721428958075465
0.03738347284098368
-0.04589453205669382
0.013471766137001155
-0.049860014933670385
-0.0035778517093932034
-0.08899127358354618
-0.03240660391203878
-0.05934313258285732
-0.015452451620250024
-0.015970438300832966
-0.02591016043496691
0.030688969098720983
-0.034110753995055296
0.024399487430348123
0.06266445269072544
0.005348621165564714
-0.0329873155605923
-0.04805148134082855
-0.02729942692767305
0.02710164310576504
0.0059842590372652885
0.03603058524053804
0.029628110743354308
0.005415794303009073
0.018211086987171624
0.0713556234392492
0.05444831639133385
-0.01164407757324051
0.038064593920611164
0.02253272330068983
0.04370723375152844
0.02583140661676576
-0.03746797827088424
-0.062295560206642335
0.022024116046349452
0.07317762301422429
-0.029833234920768104
-0.007234220694217316
-0.03983645100750819
0.04530113479637154
-0.08866026365552003
-0.08706385773214649
0.014423843070005896
-0.0031670633381289275
-0.01844703904130025
-0.01158056871243899
0.02065338132524468
-0.015915538040371734
-0.04218942198973514
-0.03566780492588332
0.034166879307570876
-0.02018238288316232
-0.053279907067969166
0.003929935651691183
0.019422873914615814
0.05111387490589321
0.008380899504679577
-0.025373509508064235
0.018231071818347298
0.02796826423155525
-0.0014963579486079524
-0.0017153612586759013
0.010005111728414142
-0.0026867883944686247
0.009619765649350983
-0.03930435863180494
-0.04424760653148114
-0.03215812998079881
0.02470042089728561
0.009953752590023412
0.04000919093267533
-0.007180420081331152
-0.043986207532378835
0.044021289818636844
-0.0007218098284574202
0.04936365524102021
0.022997941976622333
0.08417764149318605
-0.00845280714282163
0.034643227118814644
0.03428323485972862
-0.021351013288248077
-0.00663393527334465
-0.05622070546987396
-0.05956908219241022
0.00486803082810673
0.030500271949901056
0.024539385903671343
0.013077869163832795
0.03319296742888813
-0.022680684449974033
-0.01048202878799075
0.028366212054380068
0.01665841267111282
-0.008084185146029321
0.05079978408184287
-0.04969235580950491
-0.01994918028033048
-0.010899914402163554
0.031405187683606554
9.173838135519855e-05
-0.04851891333810058
0.01976939153138706
0.041828704441034405
0.028434789735885625
0.023813650830980342
-0.07208898064388725
-0.03461101833628786
0.018541561872007735
-0.002111084029014942
0.020098369307646614
-0.048705487575498245
-0.00236518324172639
-0.05345311611139257
-0.07514148317766949
0.011376118788726432
0.03240726140219156
0.009446785688529838
-0.0012690953947948498
-0.06007747468574101
0.03869642565759797
-0.0016940345144592797
0.07536776943099108
0.036242858010652565
-0.07712020871739032
0.029040372317534154
-0.05371289375281374
-0.029211365016502466
-0.009644487567698059
-0.0036177865524078335
0.015290969831441008
-0.039340578492469774
-0.04425738477910181
0.023100200066656775
-0.0005096256897702562
0.006706655719289447
-0.08437243660364077
-0.006812976281358599
-0.034258814733134454
-0.03540870665449498
0.03545903093171452
-0.0421412011143274
-0.04203448485869347
-0.012731177053913304
0.017318801178744007
-0.03400056652877255
0.047467078299233134
0.05576336636004688
-0.03390181024878707
-0.0094262213683406
-0.029949056640677423
-0.06482238864889335
0.01165427117139067
0.02821518723959114
0.07737939473563699
-0.03451575013966681
0.05139365733894696
0.0516289881253059
0.007609742675659734
0.023160134214463994
0.03358742493464245
0.07592692108622691
0.01837725240832575
-0.0023129955962955854
-0.03331418457721047
0.011743105962019157
0.03939095895281038
0.009408090820364307
-0.02999704803557704
0.0034260077883293593
-0.004967441633081303
0.01018225991368105
-0.06391724489300962
0.02118417746548967
0.02290089064475858
0.017109747622558024
-0.0001447237363470779
-0.06945908702320854
-0.0007431843065870543
0.0407967307439296
-0.03308187985740236
-0.07651036408312631
-0.05925222968733437
0.012077911223869352
0.014341384955862983
0.03408819979313339
-0.0021253459896020187
-0.057704937537637335
-0.031480928484372145
0.03149382202305184
0.00540368874767215
0.02499344748769149
0.016722646363886144
-0.007883098143472921
-0.006692570673385911
0.07142701037522538
0.015949010254200806
-0.004945675012167716
0.017516153497569596
0.008573300754779745
-0.08297524513440235
0.025003250552781325
0.07003612592652599
-0.030010764168848618
0.05592445187842951
-0.009879603743535267
0.011287361448070089
0.041167692960506694
-0.0276923627419542
0.04778822741609506
-0.0467006646676669
-0.03365979803515064
-0.02282770451336638
0.025461744863534704
-0.013110554252671953
-0.058460556137918
-0.008328187378839554
-0.030162360866707073
0.02812667772462956
-0.013201348248273204
0.002722079842332745
-0.015595094505410436
0.016689960316549575
-0.007061183210405931
0.012507642872579435
-0.09974571402852732
0.003740418345299467
0.015919756542701273
-0.007664617496715078
0.02574586428432852
0.02840796265357003
0.05016207276344242
0.004031215695087756
-0.0736077194103839
-0.0879038249534479
-0.06160926738748145
-0.0014579638916975462
-0.006050203395406372
0.010624609693075915
-0.02404792009835284
-0.02832658351945186
0.021347997785016698
0.02522786197586546
-0.00987115905694157
-0.0014798714707289732
0.01555055166649966
0.01939782981396133
-0.043999257676874626
-0.0276759175353058
-0.047328694063284105
-0.019496408262955026
0.031243599590070427
0.021010456420914057
-0.04223453693702149
0.019702566416383918
0.003301657897786615
-0.018997181041766183
-0.054094602119370436
-0.006723975831452575
0.02615169254292137
-0.083196063399851
-0.015235507605824981
0.08670321918480625
0.025870643021849764
0.009993557500133693
-0.028353275752727464
-0.026089609148998837
-0.0032033998346139756
0.061648601129889846
0.017907276572881943
-0.033544553760416256
0.04526103701476399
-0.011253623352234258
0.06528255696207497
-0.02179242402452708
-0.038587144496303426
0.006716522223598847
0.03778180706924224
0.03990172295118886
0.006122760256492751
-0.03800371876802351
-0.019436181611457114
-0.0776262257059314
-0.035120059137262315
-0.006863723649894736
0.014961620794364583
-0.013055935440953043
-0.002191502114528449
-0.015237901721146805
0.02888558862268347
-0.03458126686255919
0.03221338131332025
0.07541849278899657
0.018184217539305044
-0.020272754239386227
-0.020625774772568658
0.04653220085323453
-0.04333036253353837
-0.03668478539509862
-0.044786478995017864
-0.04917360925079563
-0.040185243053071425
0.030380959299442043
0.04239548325338555
-0.02681050278308397
0.007974386386372687
0.02919833365800901
0.003867853965275499
-0.03672856760066304
-0.05655391288992621
0.03886259819713495
0.019083823549553097
0.02219061128456361
-0.04260180388080885
0.009037584341886612
0.02419229182526237
0.012078224755659445
-0.02865473910798804
0.03893309654097445
-0.05875507492995285
0.03572084326180545
0.041579074772579744
0.06047424298212403
-0.01317277654809396
-0.03843961602159694
0.03053386008878385
-0.026892895349499013
0.0016921350555380303
-0.012210085275387384
-0.03469507582358019
0.012346133314803524
-0.053539073713770605
0.022777141601693824
-0.03718965724833595
-0.06660505178722793
-0.0019272099534728016
0.016601302031200894
0.022189792194354786
0.03147514349335236
-0.0905246307573236
-0.038659401190641214
0.004102011327039697
0.058423203074467134
0.03014401898748953
0.07312846353261972
-0.020189977804384578
0.010554499818538794
-0.04230656952189643
-0.015552008447076915
-0.02828060454934514
-0.024384179204489282
-0.015132658507140895
0.0001045207650261881
0.0008543332506340034
0.020902055368566364
0.005384171822571514
-0.013232524186524054
-0.02009917467430564
-0.011812758467641696
-0.01727065928642175
0.018883502122383832
0.033289430410433175
0.0490017129979648
-0.030680875382323742
0.018052777897644236
-0.05364152467664138
0.014352873778945313
0.041641241618887104
-0.005753442371807499
0.04125523258687974
-0.043791071935210646
-0.03417866473429372
-0.005223455486295636
0.039315782868685555
-0.01605497909007647
-0.01744435003495287
-0.03813955224530849
0.007803117093946985
0.04794981311132445
0.026949234965142017
0.026794255936010182
-0.007960556727833232
-0.021665744587073633
0.026047919862168086
-0.001227349062851572
-0.006677239835360837
0.03454771624629291
-0.007607209679720381
-0.032222163822507914
0.03496878828196024
0.003104611170533334
-0.03988574399418046
-0.042804072879677545
0.0036696875318025703
0.0899003715953183
-0.01510848475177725
-0.012933609964829942
0.058606584523732824
-0.0022031230688659767
-0.05571026397107647
-0.06049217125185282
0.04717938360721078
0.025629020855776497
0.03177406570889204
-0.002221406091488952
-0.02795046253779991
-0.008352427527852577
0.005231969899014491
-0.03224273675764235
0.021594227290427953
-0.04844600649229698
-0.012798414022123991
-0.00784645663371165
-0.02657768512212956
-0.08482712903922393
0.017225756311971253
-0.029067336940010277
0.05098876766632198
-0.013153164526309703
-0.020821522631970023
0.0035200748761106573
0.04051691340886339
-0.02166952550454499
0.03902837287806834
0.055396293885293185
0.03808933887138252
0.06255505734585605
0.049717154654325725
0.05826470361126945
0.06170485843906313
0.008002674216537069
-0.016508611522007628
-0.08700937058630023
-0.0508743507508383
-0.01724164612149214
-0.014682118740021769
-0.005876710130849485
-0.03849078808649039
-0.06137606197851208
-0.005008583325643317
-0.007285304954299639
-0.031059770828841
-0.02854431390963018
-0.03615986891816949
-0.015250913039089146
-0.03293472411520197
0.048456743519885215
0.009269105078658503
-0.0373968430010199
-0.010786453133363622
-0.045395600244276565
0.03892954981441492
0.05323795094541616
0.04815392241357813
-0.04402663966317683
-0.0035102699894683045
-0.015445025981265998
0.021615888689006987
-0.03876576166476531
-0.025995834384654484
-0.015892962628915697
0.005895710351247073
0.026697258005303325
-0.01264337279756184
0.025537118289470074
0.03161832141527453
-0.008200586033531578
-0.047909928187138344
-0.045045782132082324
0.022758729813521856
-0.01831632447364113
-0.06587035856470981
0.023575091083961563
0.004982866174854576
-0.05407565696702417
0.045362306969332536
0.03217830719837498
0.0053363558188530506
-0.04901228337440065
-0.05393578972635704
-0.011810326416978328
-0.06591982267501113
0.015580010507095593
-0.05426243513001294
0.00634279727902687
-0.01108197895102794
0.02737635646527093
-0.03607490751005724
0.010528055750950924
-0.053647699724409366
0.030598059683438733
-0.004421606395288258
0.019071179575593476
-0.05078943641646278
0.019195549064298715
0.01177705370398879
0.013988380488975506
0.012024383192845616
-0.007440918568859528
0.04774227770446119
-0.005996076375603984
-0.02842958463041649
-0.0022586997449591767
-0.036558382517097324
-0.01784601628195554
-0.006817177545746111
-0.01459823540945615
0.0076691181848263755
0.07483697658870488
0.02195960922485079
0.041242332588003514
-0.019373439898778332
-0.02257754955789033
-0.014545309495884222
0.03280342681803374
-0.08261994147041915
-0.03973710674197567
0.003935994109008458
-0.008618937194728027
0.07568191085165561
0.0172185852208714
-0.025468901674249263
-0.06067719494382105
-0.013098462882225473
-0.05012384933378518
0.01795194809301674
0.006196397009295325
0.012308920465105051
0.07996833326134759
-0.034902537746934525
-0.007400161838304106
-0.04663522094188112
-0.003099942928850979
0.06127975445961641
0.021873938427710456
-0.004403347907276955
0.009678086493072714
-0.04657137069013808
-0.015143604295938052
0.0032789451757841126
0.0038239225657131473
-0.05886985555379296
0.012600891509030055
0.010738326635161933
-0.014501969472029943
0.00016057688778847338
-0.057057367437230826
-0.0569152159740134
0.005180279320701447
-0.025681661189083233
-0.0004444430855500525
0.03228810278144634
-0.006689612704044456
-0.10810261749343066
-0.005794370693111283
-0.01850169315361674
-0.009026705935496926
0.03460503125275204
-0.06071269945927362
0.009382947073384018
0.06039630430427816
-0.02407473519109452
0.018166457160989895
0.037165606883492394
0.008085824580849776
-0.026349883858901035
-0.0272892696426154
0.028607698221768552
0.02277496503006669
-0.03024878519504714
-0.04524896747542627
-0.04926179669803832
0.06390968696864503
-0.002613273861173025
0.09077802252513133
0.021367138579636267
0.016904704724376867
0.01177971108866091
0.03842884039220636
-0.03715627634784883
0.08307742724502828
-0.003857757792762765
-0.027053849699723506
0.011636961626477696
0.04201303369349223
-0.03875211060703753
0.021802668170810436
-0.027555544522556825
-0.019472058968249564
-0.018826246875193492
0.029366979480227713
-0.042656643530552985
0.0074083119244081775
-0.013208379387792004
-0.03258500684455882
-0.046673984721326174
-0.046264935558307796
-0.06283830837126143
0.03446796899035646
-0.009294352408893102
0.006101997310240114
0.04531497555698452
-0.04692758295890588
-0.03621329520445057
0.009796751411299362
-0.07015690584924487
-0.022258019730648806
-0.035572810503864134
0.012673940083443677
-0.016377533321687267
0.07723651074526763
0.03607274507959209
-0.03281686477981966
-0.014896670671417318
-0.013368635112132467
0.12717593650425238
-0.05808460169146697
0.007828450015562033
-0.08017046674467421
-0.00026682466176625375
0.07345732930419276
-0.015709824295158013
0.04248286236430957
-0.0025428933058924495
-0.01624995064713211
-0.009679090728707538
-0.02257317866076929
-0.024079164303454748
-0.05116132355094214
0.05795387419036322
-0.015118322915132444
0.011299011952528965
-0.033712763516914844
0.042961175362128845
-0.010521376073378063
-0.0035012564560694365
-0.07034525520369021
0.015229854274600456
0.06967329633924024
-0.03342606099999661
-0.017624198219326252
-0.043781690700577545
0.004967775932322161
0.002462469150262616
0.027118503903633424
0.0212105210308046
-0.03125061716098466
0.00865184804093745
-0.012626965643172032
-0.041962806822181294
-0.004879072037023591
0.14621770057565828
0.08904502438484403
0.005377946067986593
0.0668791233850291
-0.0017455140056258597
-0.0020437822862108108
-0.07498353029345244
-0.03692713715170333
-0.030134587076402927
0.004135347371747309
0.0005378667253567759
-0.022267013515071814
-0.022646661520532445
-0.00639050521569047
-0.05313121733393395
-0.02356302155263689
-0.014664994992626733
-0.04803649742587979
-0.012701457433251703
-0.03210796782825032
0.047514707384979885
-0.00937706912073546
-0.007290218009868295
0.016462619500821823
0.0214218583400242
-0.0667785309346212
-0.014491696504135959
-0.03496278177892659
-0.005583470930508388
-0.020628173892265927
0.006041133186838779
-0.03770997098315984
-0.02183720159693027
-0.022736910343167428
0.041638129633495904
0.0141539868954055
0.0141880272148333
-0.011012241569616374
-0.014796840465136692
0.021577034172986054
0.029901305145914804
0.0005825686780323394
0.04390953636446544
0.049005962596737854
-0.06402684766880441
0.016553034030117306
-0.001638535711193716
0.01493418515262472
0.04292217415487471
-0.0354053139650554
-0.06231823470856008
0.04254582587888636
-0.03840325557424664
-0.026393058227732136
0.007870034362294243
-0.026388531583129073
-0.061238870319830684
0.0013149910544509803
-0.03005710226776382
0.022994610687318024
-0.019464482926102106
-0.026478697643107618
-0.008076943811931131
0.04046744141687194
0.03491938775529555
-0.04204716086383537
0.10768106342641988
-0.012529858637885707
-0.04432368188305772
0.03416276884802994
-0.013910479129013532
0.08283536568614037
0.03259262905698207
-0.007643071011875696
0.060588726066623244
0.032658277364247874
-0.04726519988211114
0.034169004214323215
-0.019864901613401945
-0.003204857124872106
0.005040555739133136
-0.03381138508716387
-0.05128239534195006
0.014145538881549872
-0.053393596102687034
-0.099046254875741
-0.03215790786043961
0.012734323903399942
-0.01038004359884478
0.04873580540846429
0.007067442131988037
-0.02947344815181081
-0.016907059633826688
-0.05525159074112225
0.04176143171945888
-0.05311923408011376
-0.035400293543048814
-0.006164854631870305
9.051017272392881e-05
-0.05779424475037651
-0.03482829981613443
0.010193869316896873
0.04345089842296131
0.013423213926545195
-0.0009926831381097763
-0.06009264361038966
-0.023743936405849632
0.02005747081965593
0.04157487191749567
0.034206765698279025
0.005310447863292567
0.046330787178814545
0.11082541204476784
-0.02284084289933415
-0.02935060751327063
0.058403189453066204
0.009056327899439229
0.00431952647797192
0.015091320294581753
-0.02517255789172922
-0.039799818644253415
-0.029890288828781184
0.04792100987811595
-0.05525541018017621
0.019179024832636525
-0.021449517693288827
-0.013591034181359405
0.02857503756185897
0.032461112052226744
0.013191405302574464
-0.0720430639371541
0.06042171956445351
0.05039217373844464
0.0035168012765825875
0.00039453142151583173
0.06928650802385213
0.03643170274206645
-0.0011267078298046016
-0.01124379522504401
-0.007443735038885652
0.04527815593835252
0.03999968402718029
-0.06205473121149244
0.017870861494848612
0.03323543582221567
-0.057940890998912246
-0.00011402890147394864
-0.0683478310144815
0.004980493690053341
-0.08012440391972878
-0.026220981681073757
-0.023502535172889794
-0.027263454620869466
0.05582800065286795
0.020596560374580915
-0.015368033089361549
-0.03588760926515774
-0.009183704494047396
-0.03958126801151213
0.03742615400575634
0.07679869236722255
0.04050768838777351
0.012757320982505729
-0.006370337818967152
-0.015581011133133127
0.06712632971875362
-0.022151369520059028
0.060042252188298076
-0.04352074007769803
-0.011393525169161818
-0.06592525356618407
0.006124392354933846
-0.04860490853370027
0.06404036179963238
0.015856625833118077
0.02066910564910839
0.010872248044798846
-0.0420208005535053
0.004773780297454885
0.07065694953337479
0.00032903561562733647
-0.039116007754800494
-0.07124394833442448
-0.02743565347661834
-0.06777803452080301
0.03194297573240759
0.030044894853163293
-0.03368007027771348
0.02361466571036254
-0.022171332806037777
-0.0017543954913407374
0.014305982752499169
-0.017075384963057397
0.01608474417896603
-0.06483569424875199
0.004518268768768062
-0.0013443085533743982
-0.07870742831723501
-0.06960346895121106
-0.07152013867795874
0.015934878227844278
0.004767677956602337
0.010536829891309243
-0.051014557404160055
0.04380668502562559
0.03780158537759192
-0.029498578270128015
0.04523308755591525
-0.009650861414660003
-0.06831557784653967
-0.06279595254426511
0.028220134148269453
-0.004001877333422279
0.03389326717130505
-0.0033989663358620498
0.010295034360029947
0.08167409319154514
0.05372496490890003
-0.016647202638861942
0.014421874027043327
0.019017132425453442
0.02928427567292719
0.002731107891847298
-0.018981994249809085
-0.000139339124480819
-0.018472581133783687
0.06474489543229973
0.04772023995520471
-0.007831346879976471
0.01647277925745429
-0.006363817855218824
0.045893889844931236
0.04034155832376895
0.021869647411957193
0.03351016421594331
0.025406569540060722
0.04515622514647304
0.020428129743430685
0.0058423280428662756
-0.022200985523047622
-0.060451951442045467
-0.001071091557950481
-0.028502135900158827
0.002308041036812448
0.043864939391811165
0.006647102901552045
-0.01596160273498554
-0.03281263941775543
-0.05500520028553585
0.051261743667595686
-0.06833426995881728
-0.03595319331657925
-0.0889693051421949
-0.012159291374989084
-0.013164790760022372
-0.015549785408826683
-0.0024280730760154814
-0.03158711824683689
-0.035140601557258996
0.06991640051004139
-0.012848574937052727
0.03490994711333713
-0.03218350164049955
0.06202802287508027
0.05823777426953069
0.0088853339314337
-0.042289676652672435
0.003346207143371565
0.0018194038477329674
0.009216304388057574
-0.037623869853833494
-0.05857692831458826
0.006244732207001335
-0.0003958198589891697
7.980853536024613e-05
0.03949232995580645
-0.056736941655052525
0.03887283523030019
-0.02858567461605069
-0.015200848686540756
-0.031760744740433486
0.0034469176092019856
-0.07330068749230491
-0.02184945078027668
-0.019836790203282804
0.0486127000908921
0.005796082453354542
0.02675070428831935
0.00022841593794240762
-0.040342321979335176
0.03489249493012491
-0.03251697469490644
-0.020240128491259928
0.007003837646521787
0.03636687651719639
-0.0077455593570286245
0.05809710507627983
-0.021979939040465354
0.025599587959793533
0.00013908849810396424
0.059487378392785374
0.0082463851254224
-0.07220433915600373
0.04185904653113491
-0.0031364812823279787
-0.021271611964168574
0.04703710622772457
-0.012742639847288531
0.02307641319855161
-0.02955320458837221
-0.03215885103184568
0.0696377600224466
-0.030270489894718686
-0.022491189862210322
-0.06570464584106474
0.06269162476953166
0.015307627819042246
0.009145370517407573
0.0375053234837934
-0.05112832958977951
-0.020809491612295034
-0.0035168358172888736
-0.059556578874171574
0.05043950485961351
-0.0007088096228218161
-0.012434178317519242
0.00908559575262629
-0.02894547247449228
0.0017351155312679335
0.13182840565394205
0.023257001163300046
0.06416580998593559
-0.013657043171381552
-0.028906499620420686
0.011911676514294589
-0.051604036285539806
-0.08872914482483825
0.028138173270082265
0.024666851729701133
0.032071200836656606
0.0010834566611537153
0.07609125768767933
-0.003358776425292886
-0.021306336184252997
-0.11563456596182026
-0.0018140718328169864
0.03199529942537225
0.00026389225151915213
0.043239297478721565
0.08826466024059199
-0.006667315706815366
0.04735590613820417
-0.060994329814616326
0.03966611939833177
0.002441941553337281
-0.00851501916719477
-0.006284573846403446
-0.006011671859178564
-0.011877034974817305
0.007641268082679418
-0.0067035436179385425
-0.04445355688320011
0.01604053419200478
-0.023379536476518005
0.040307177492005
-0.0013010371758607967
0.004885536666199619
-0.07881661204787178
-0.04833385108338931
0.03613901513490192
-0.028223720231776092
-0.020478371499959604
-0.010689998741087668
0.05245163818566702
0.014389922992368598
0.05039479243782033
-0.01029799221273813
0.008199087067938125
-0.04627859443753753
0.045308893659360465
0.0041787770651866675
0.0016972730306259788
0.013012136124063827
0.0556458489969355
-0.008249811788022702
0.06396303683672716
-0.03275086863091505
0.01623786953727276
0.07727763696826447
-0.01883902812533082
0.009432917440131533
0.03375019472447823
-0.005303834573027179
-0.057705895237089605
-0.040613821502652164
0.022343561109762874
0.03428905076881711
0.030175205166192164
0.044093538994917116
0.002768661343693141
0.008008968104269487
-0.05841802535221267
0.012204959757782192
0.023564645591965302
-0.022431203646768712
0.02476929611134274
-0.06984187863530092
0.02888844606902065
0.011549397062338507
0.0811772512918469
0.05434944372558719
0.05796078302148191
0.03143834986031406
0.024869831304433
-0.045447358265881865
-0.012888126936607172
0.0702587873331102
-0.05600632495088807
-0.01731853210819731
-0.05458592618517964
0.055805839001235674
-0.02176082032867734
0.05940516792043432
-0.015913942066126868
-0.019389695390913005
0.04917419957633328
0.03610891255360678
-0.10447231958529134
0.017351568840661528
0.023083341471242007
0.008069497342342729
-0.025294538608645185
0.0010926324861380468
-0.015310056960217856
0.008127808754229825
-0.007784394725425622
-0.023920313778420993
0.006298863319408253
0.03086303500709206
0.011115611245975631
-0.021293938074278127
0.012932846937323475
0.04114586122534484
0.06136169879139193
0.046444330159978335
0.0206684689753474
-0.038812462738995634
-0.05252125872772584
-0.007783892835348941
-0.05419941467523705
-0.03018402804079339
-0.006543165567352539
-0.01862347775918859
-0.012612232935016062
-0.0510771010499273
0.00890256768435425
0.038327232733342584
-0.02108221029958344
0.027913667084277442
0.10241256591223379
-0.003531193466709723
0.025046538767289565
0.007568080387975215
0.03729322035477103
-0.06610191833123442
-0.04065218338250827
0.005517843387360786
0.03411394485224866
0.0050201548409592395
-0.06402204811414014
-0.03167743370993827
-0.03056561990758527
0.014961228653963377
-0.029309190763093358
-0.026184888646183506
0.041721060639911725
0.05135831833840731
-0.01589518482061687
0.01634241047499511
-0.07236476148197468
0.007627963821359289
0.04576838653060874
0.020260834817590355
0.003886955552210455
-0.01494780667202448
-0.02487661598428469
-0.006887784815146267
-0.05967081300908888
0.06194072993454785
0.021700409245954518
-0.003939885931280143
-0.02383864518566688
-0.002705370006067041
0.030684420856263186
0.03890184196995949
-0.03475734346406702
-0.0374434138528329
0.07993192164647213
0.043715109912141774
0.027250766954923296
-0.005332547835283452
0.035539243779337794
-0.04897050676273525
0.05891417005904002
-0.0013758547975830787
0.03041775008302893
0.024854529803660624
-0.005060419663920309
-0.0067448598114410755
0.04698396697215319
0.03948066940702265
-0.0681627353838624
-0.06509252834832531
-0.036393100782929184
-0.0343671307038347
-0.04302022586873965
0.010465793971626463
-0.017834786428229728
0.04638940852931424
0.05587991405834835
-0.0011032014422151187
0.06474838264126512
0.000931319620797046
-0.016722717182688508
0.002491759203612085
0.03634076930742563
-0.06209465279614991
-0.008023050854786756
0.011438679242956587
0.013964794816867
-0.014170628589342732
0.01879945164013351
0.011235446844263952
-0.02276569667201515
0.08390763957456826
0.016905777155050296
-0.012737821160531921
-0.02198919359532461
0.03959265070118907
0.003925376579387206
0.09800433453135347
-0.016766312421234175
-0.047792574555857295
-0.0010653253397539457
0.006733363801440125
-0.08147887056308831
-0.011891096706980001
-0.014169824668753677
-0.014183212930982712
-0.02423945183194634
-0.051661251657247685
0.0291553096700676
-0.022455417076525985
-0.039373132784648254
-0.029228241069919517
-0.018166278451805944
0.00417873556588565
0.025705345629249556
-0.036660749923656574
-0.018434515290555113
-0.051750297231537484
-0.1304730766700914
0.005992074258907268
0.058461673750028594
0.020080125128954775
-0.01950230600549957
0.003710736254047529
-0.04518538849981005
-0.004703552232022327
-0.01645035588682985
-0.032796701233360905
0.015602008838640522
0.09999489093765604
0.06405575024748902
-0.0027720392816190714
0.03400440979676391
0.033181055156524066
-0.024905308680223795
0.0247655412884852
-0.05542277301946735
-0.030973015071214704
0.009182802707928123
-0.015953371629120222
0.06755687088577775
0.02492463209828251
-0.014693773890998928
-0.018099219735133933
0.0071911772389724495
-0.040597357255468564
0.02290815204979033
-0.05289622884405675
0.0239619306138746
-0.006330566614631261
0.01594667377274096
-0.03894561251299861
0.00942250796492759
0.09278260544279439
-0.017585259710025565
0.012207686935731708
0.05790642114451187
0.02929631326385132
0.016610980159408872
-0.03898804894312275
-0.04913801431910194
0.00205509387240227
-0.01781676366589239
-0.0007330082221265815
0.007909872077673732
-0.026016455340110968
0.019003962538996902
0.07148293033042703
-0.038820807206940144
-0.01805947532772735
-0.0019081022569229914
0.04386383361309967
-0.04563007694929623
-0.04096723478400314
-0.08321773126216778
-0.016937008200532667
0.026159452539301267
0.04097018111454387
0.013736679281066606
-0.02311372997624835
0.027171985142398984
0.007858407331389062
-0.07387329226653577
-0.047234416639059196
0.05814866558447296
0.012392503191356612
-0.05287670725032999
0.03153665800237634
0.04082442152933228
-0.016732078056142
0.025295465245645604
-0.1438500245366069
0.03744526135339068
0.045198284304610585
-0.04325779672168205
0.010849438442896327
-0.013004636271055343
-0.003943441568108744
-0.016341555559041085
-0.05124213334057003
0.07270783473390983
-0.011935032676123713
0.0040290401639319325
-0.03882309924043968
-0.03987950619709026
0.015869169810596148
0.020245849236581268
0.03376631420479787
0.04245284624975724
-0.008084905403875459
-0.017084733230498035
0.028723608955728206
-0.024516892439632103
0.03352917291914728
0.014403857201626503
0.04442409363782683
0.025784295724916573
-0.04055560861119848
-0.033293601599462555
0.02817251142336108
0.07334830163145283
-0.050877373107039166
0.0008927540125104978
0.010833636826172739
-0.05868375045636719
0.018389422937038973
-0.003581645847978382
-0.08063682620060185
0.06237415300959982
-0.03320031611811818
-0.04932705439596315
0.016159293161988223
0.02144179984249602
0.028323515526779686
-0.014846283161896609
-0.00041978222657345173
-0.028107952429764056
-0.05039220406277724
0.04150502496362446
-0.003952410962222831
-0.007012086747036787
-0.07689490738443586
-0.006860427087705236
-0.03240363450351728
-0.006715909736531397
-0.0084324673791105
-0.017171722743575497
0.03610917857350535
0.017194390474006022
0.04335209671044408
-0.05095489884460479
-0.024959843363377508
-0.001549262243164876
-0.015639960380901312
-0.003048374057566841
-0.04546551535801242
-0.02754530989470157
-0.06313669057123127
-0.034231751991278425
0.02669910463046207
-0.008238726337151933
0.057913586106058006
-0.022905149011756887
0.004579656956628054
-0.0466635511597084
0.10002584116990017
-0.0068700230269406505
0.03190884001151596
0.01589942387950589
-0.02245687749381832
-0.05118851082829578
0.006005504789954129
-0.021414990167820513
-0.00598093467275892
0.0250500791845147
0.003009275224629978
0.014504472975715214
0.0057710221559912275
-0.05643266664040415
0.05369469983466688
0.045225088324413576
-0.04369864824064298
0.01943463890104504
-0.02546247192930221
-0.028727551425510412
-0.00018621774365567542
0.0672180088652961
0.040690675441610966
0.023277744551225305
-0.044254062913617345
0.09824805456736067
0.03360504021771832
-0.09033990076596583
0.015364397508018915
-0.01879595061223398
0.015768552151883355
0.015409244877289485
-0.03532765678731172
0.07022637508875747
0.007684023900747081
0.03620568871193881
0.05197782941339243
-0.02839067684430717
-0.035068018646404756
0.04315028264799101
0.05357067049064834
-0.052962252722736046
0.07735550715991009
-0.009057819782071267
0.026607097250476323
0.021707238811720254
-0.037359319993589504
-0.03323262072873948
-0.08013816689595865
-0.0442750052164062
-0.057018306182408614
0.0015457890680882218
0.05266931356623392
-0.0010440357948644085
0.013032852391643717
0.029923213206458795
0.026142670808473063
-0.014839673081211596
-0.05628250233975002
-0.01653098115540965
0.00242151366399634
-0.03352481587580037
0.013921565796194175
-0.01125815753623625
0.02391621259657279
-0.030893826007108657
-0.03546029458882245
0.06823293606553604
0.001106009142834087
0.02126784036136678
-0.042247009726621265
-0.014510171364697153
0.026237287800292882
0.060215994601772495
-0.02786481056921326
-0.030881438901498724
-0.0008718823209364466
-0.058630582682648535
-0.001158973326062557
-0.0024895532544381956
0.02787496732035617
0.05440806702649888
0.021917089146157344
0.02852119426768036
0.002010728889780818
-0.013836329864467678
-0.07676834112141402
-0.03408541612210064
0.00835641094974347
-0.06329206629961508
0.00934191626089501
-0.015416719625690427
-0.03929076356083424
-0.018077858332884732
0.028030058510061524
0.03405773498536452
-0.07450082336343229
-0.005749385082641171
0.035149409933981045
-0.009919033061898359
0.004185202727469746
-0.05751580289462575
-0.018462832954549823
0.07033751651493175
-0.03031030901982112
-0.0554089362767699
0.0057489137907079215
0.030331897425605343
0.04591578810097139
-0.01991240931251041
0.008556752947258443
0.020936726087899735
0.02496963568593122
-0.021046259384982474
0.06587403580368054
-0.026434500867335814
0.02722585225742827
-0.0008427398517509833
-0.0225853293855585
-0.02472504996009876
-0.02255180426616285
-0.017187348655896034
-0.03918790766753497
0.02682345012352962
-0.02705828137000854
-0.02365464802694209
0.018795791969547438
-0.004152382428217245
-0.054688601356881236
-0.03600036532862564
-0.007559894016192056
-0.022114916821825686
0.028864712971270762
-0.029400078038108176
-0.03719719504012352
-0.03886716187610097
0.01564066334452458
0.018595066387912817
-0.06432479182964926
0.0239259690968501
0.033114356557536404
-0.06503837545419419
-0.026555054975421558
0.05495740093684523
0.03869621946250959
0.0009535638173477708
0.019278822934208916
0.08123152398538748
0.01933834513279315
-0.0469541869776497
0.052497653830801023
-0.0334976496394084
0.038227009071070565
0.025241179267572647
0.034212059730990826
0.05926665290035221
-0.05638132032722893
-0.002676482882261433
0.0748480577902261
0.03755314401999797
0.006813782205435114
-0.03935281269342116
0.004104634344306063
-0.03507235763630814
-0.05647565217170869
0.02217225780994433
0.002511754051474926
-0.02975049241387352
0.015190314960086453
-0.019380380299544187
0.06844458016182235
-0.0011758632449983882
0.06065723894115754
-0.031261619263034245
0.02359035251552445
0.07091153755682955
0.010426576239071565
0.04370952411736597
-0.06685891800671735
0.027197490166189508
0.001168697364033941
0.02942315297632722
0.03337173915435047
-0.08677885068501612
-0.01706164383100383
-0.025770126176902382
0.005852468846373011
-0.07463589989114296
-0.041942641056988444
0.03853541167414106
0.006803555617398794
-0.04184671313140951
-0.00973912950213339
0.04224127145099406
-0.0707525686910762
-0.00813186975162538
-0.008833201665031185
0.007191515941117196
0.019376133314149408
0.07347471159954011
0.021299276708715818
-0.022595441051059942
0.04838269011330503
-0.033025707619151086
0.01677642674391132
0.060440886588835493
0.04143518774491035
0.03119575679440472
-0.08582837072006783
-0.0038847122040529397
-0.022591348713431693
0.05095647197995078
0.032332633774542055
0.010042545444729134
0.03055544801158528
-0.02498524948123206
0.02439555809167438
0.0036539485567243487
-0.06473872334672376
0.013232543769035538
0.02719838579358725
0.045900560966947467
0.020284174137115658
0.03871938168932063
-0.06662797431089518
-0.014362006263473915
-0.0054811691184680445
-0.012682398644712224
-0.0034246969037115267
-0.022207548028414154
0.028314056894039187
-0.03812329032586474
0.0048144081421647895
0.0028135658912884
0.005536047476136021
-0.036450935297117924
0.05381653556482119
-0.008697066398251341
-0.05534054480179939
0.03081926993450105
-0.00012813253591172644
-0.0037285214483625353
-0.0036873634635000343
0.015209113997318821
-0.002047809312612047
-0.02974998394209455
-0.054584057995909395
0.011671228176716522
-0.058392565584209036
0.04306568174034113
-0.03668696006746795
-0.03267746238330177
-0.037765372809514586
-0.05242606415983481
-0.029715329217788224
-0.01090867124063504
-0.08952323241158269
-0.0940472111837962
-0.02753326643551956
0.033976801632925636
-0.05001691756154165
-0.0029361186184092675
0.05502141598384475
-0.05090033012399542
-0.01685985254487535
-0.02858278773802945
0.03430644546145756
0.017841260201096908
0.02375618641287643
0.09601604087537899
0.06267212395419489
-0.0038094116034769285
-0.0077689213560831125
-0.055724072641144956
-0.06592941105509789
-0.001909291183764368
-0.04997674859163558
0.02405213189933401
-0.030450741835493473
-0.022420899788652977
-0.059718482348429386
0.08115975093149626
0.029185751885503916
-0.02730500927190706
0.005813347390236781
0.05088812723004562
-0.035685579777957985
0.07333071856561994
-0.03969903440049207
-0.006821595510442188
-0.06347609214027558
-0.09763504330979335
0.03884964540522395
0.003296234308207441
-0.06668696078132809
-0.06310004635115159
0.044052361525265975
-0.005792119558566193
0.05505550950371455
0.024484106470627022
-0.0025601095213014435
0.0012434607987790872
-0.02134898643256336
0.0037610042011157
-0.0023455762311494015
0.03221217971765009
-0.00628532465677231
0.0316752112257207
0.035408934260572865
0.006952407960860784
-0.05049878207689168
-0.006172181002010899
-0.07331056330716032
-0.046408523898171905
0.028093012813857763
0.019034338054905175
-0.00012341840134572082
-0.011632044499901033
-0.028438497931549303
-0.01972354165160941
0.0371250583566925
0.018333817590762833
-0.0527390959054105
0.007648186252482872
0.005383185757238888
0.06341051820684937
-0.06759814421092676
-0.03012036688833001
0.037447147546786255
-0.04272816247739392
0.0917546781670169
-0.045344008543139094
0.0011200825084278047
0.021521059921346113
0.03388604394339406
0.027508018644424828
-0.017772212934060564
0.03512334637087801
-0.029025095684526707
-0.02057604394857048
0.0175631715836443
0.05806065222779476
-0.008775816823472615
-0.03424390509058359
0.0465296887428165
-0.04864615509612615
0.0706992880398724
-0.03784933417147013
0.02465186333928068
0.03564197021248232
0.030193617479339383
0.008730870678460406
0.0019049827641533631
-0.0635838654382432
-0.030031524527397286
0.02787094951367608
0.025514198716054044
-0.03991851175426819
0.013345346919041587
0.009693499561158732
0.06734303240204868
-0.016092352297549548
-0.019994510312935143
-0.035517037243313475
-0.03843378733920788
0.014421090829272683
-0.027090043810729936
0.0413347637680836
-0.024126886973636942
0.05899983366166989
0.016066363766273427
0.00993783178460964
-0.04424725241667168
0.01265823793073085
0.0017508452509010168
0.024310869360625466
-0.019647973009938313
-0.055908841396396715
0.010585446110957922
0.0053764325653547496
0.009380475405105587
0.038678852402949326
-0.0361400243382935
-0.09160577452673319
0.01827026932103602
0.015612020007811681
-0.018348319454596203
0.006561469290918704
-0.04029926191250897
-0.08100758507678954
-0.065111978784062
0.0016292746106547683
0.05318116979975832
-0.014981476473272783
0.031305304237204776
-0.022858921979791176
-0.0021322701107320237
0.030636950917637178
0.005122303273434045
-0.02083378264231794
-0.033280860135545084
-0.003558774035528194
0.04546546510639787
-0.06040979206471045
0.03305118313564075
0.010909499722991801
-0.03727354872695117
-0.0007066818892701846
-0.007847517181982058
-0.03645155249559441
-0.020747504225141707
-0.04831874233795721
-0.07967398413117784
0.005816786063843566
0.04017267115580012
0.06282111774261419
-0.04274532876368812
0.0825909678896281
0.05870410512212993
0.054749039771305734
-0.03021793817565201
-0.021625062503132824
-0.07455220838074787
0.00735227833563763
-0.015138573997008853
0.006222718771216824
-0.03209684751184708
0.025879633390086917
0.013199542677529584
-0.044004733834143106
-0.0017649209812034175
0.010949403884071443
0.07724775216198351
0.0036838787345771203
-0.03616957681362962
-0.012163963529701224
-0.0012009025335545799
-0.005138280332188251
-0.07082584203920192
-0.012752957508250772
-0.026665726716338888
-0.010019729278141022
0.08157547712880536
-0.032011177206969714
0.055305423234620704
0.0446391593978266
0.02628837765290659
0.000119631475818805
0.025168977726572533
-0.017304606854297983
-0.021017658900474506
-0.02876391046699467
0.010534676574890644
-0.008068099306764942
-0.009214810230716023
0.05462418510441371
-0.027105711991633048
0.028283265204734984
-0.02007413912085153
-0.061238270221672816
-0.05484424799386093
-0.018905860486533293
0.02421582652713226
0.024684092089602323
-0.009257198179773211
0.023785450340581597
0.002933196541375241
-0.010057319970694274
0.032874279479706794
0.045688226936915904
0.03907797663841173
-0.011802806191870914
0.021834908763774766
-0.08189406428967083
0.007502573951278131
0.013884706374432903
0.005845199959838137
-0.008548951152117769
0.05018358408662537
-0.0035860654131159753
-0.005366843672543817
-0.009266797942915779
0.03977328381988734
-0.011248447068833654
-0.03209036030717572
-0.004183020831035352
0.06568129837982366
-0.011564850571904619
0.023683524393667457
-0.010696566877537355
-0.01064410825794509
-0.02157082245266525
-0.04678092535943924
-0.004222370323465971
0.027632913560402865
0.06062280629110241
0.016994980625136748
-0.031417733781234684
0.02867325384270636
0.017462660533014717
0.05378319965153106
0.08036963292295844
0.046715682892847214
-0.015106084567738763
-0.0061242132192501275
0.044536174207947456
-0.019526659074483692
-0.005403210170551614
0.024397701566356705
0.04117715594568374
0.008573491123918859
-0.11125076238458219
0.013052537103122722
-0.012001892128158068
-0.03753542296646943
0.0009280833123404786
0.04309477499457879
-0.04345681651514717
0.0611508842845107
0.03764346541240399
0.035929370196783064
-0.03133494593116576
-0.009663171045327676
-0.014724418141956836
1.3113766680077463e-05
-0.002392492333073217
-0.012205726185347215
-0.006843359466203561
-0.00813924296004529
0.01028784088686796
-0.06353142443827305
0.018714551877980427
0.06527968070703635
0.04125003258783666
-0.03638066255605091
0.04017723168116762
0.08806260971534778
-0.009329086903933175
0.027731996972803714
0.0884377076915228
0.0396267549074497
0.059643100046249835
-0.04212405982725897
0.009062340691060222
0.01507573471686351
0.021703351126650092
0.030365674861760013
0.006006732971538354
-0.05047669753887767
0.041010477485663624
0.014571551101978615
-0.04533140883076386
0.029192146954903683
0.02126846201790801
0.02065517491056365
-0.011032123392098477
0.0628617555738424
0.021970255038790607
-0.030382848467007315
-0.05933684386298767
-0.0295127762611968
-0.09113935743470056
-0.01002153246335093
0.004959886561230567
-0.04644870902778175
-0.02097859964751809
0.0597416403901832
0.004126589833063926
0.05905167477056914
-0.007113516040809072
-0.006799335127942116
-0.08458669405106614
0.028049567200110148
0.04232916307879583
-0.013168001686662673
-0.011934777897310525
0.03127062992284463
-0.028319118842129853
-0.03008939688492597
0.012196083313970905
-0.02331735953787754
0.023502226310755703
-0.03539651981728612
0.058058035351194574
0.025248603240584117
0.002532737657697969
-0.033601178174844246
-0.04068284230278794
-0.0345091165647146
-0.05508474227449907
0.05155501222990882
0.013156724579875807
0.04117801270896792
0.06688711674562546
0.05025407782526276
0.017292953519043554
-0.015809632532015085
0.028819213654084602
0.008120683427661429
-0.010025043872948109
-0.019815321959762114
0.04150833755354746
0.056825491794348794
-0.010581104761162474
-0.01680798895526386
0.02685268225922524
-0.02442986148216168
0.023218334113733932
0.06680498484145143
-0.01607055523440584
0.0009428166232461183
0.07652665682750513
-0.014352627422409232
0.005424489674944266
-0.03622367209269256
-0.027032099855125547
-0.05303219122617973
0.11250959938733276
0.021990461200406326
-0.0017644442001295974
-0.04065631890282674
-0.07018050243146669
0.009297626472789916
-0.005582762273656806
0.019307410148364144
0.026628032349306583
0.03893365549065671
-0.001622196642944458
0.02392347941394969
-0.015674466469304208
-0.03274793840825862
-0.013007048798084989
0.029575682325484184
0.02332683340497819
-0.00048512085900669896
0.012401066264272708
0.06182724394269507
-0.06932346571139697
-0.04827184217143083
-0.000501298438883708
0.02693682066066085
-0.008279739790019863
0.034734171341116296
-0.11567066170936766
-0.08963335606358251
-0.021838587987673977
0.10258931111092986
-2.628945066029275e-06
-0.08620957568481129
-0.013847297416302735
0.023749764675686194
0.037008553123527875
0.01809803504595259
-0.009069392514758644
0.026107280546607284
0.04436992429163429
-0.021335877147359995
-0.004753875439498171
-0.005234527154237591
-0.06559778486079242
-0.048349862470771096
-0.0891778841477324
0.003243766353004836
-0.011448971241960766
-0.013039725988097042
-0.0013232211229316725
0.019971891869209696
-0.025868580679597714
0.04513889329814259
-0.06123959567894779
-0.0005249692615042468
-0.0037825188539375642
0.03268757980429091
-0.019037911919443637
0.041105033012913426
-0.008994861946712703
-0.003915581027701657
-0.005733737028224493
0.02684985547962177
0.032813390940438635
-0.023259261390139136
-0.0541881139218629
-0.03773467754608814
0.006353194923152684
-0.0006402252120205001
0.0054204873351532895
-0.02789123577145421
0.03060541596507311
-0.00678609774080653
-0.06282440499240717
0.005974991531351652
0.02105484608955737
0.00552924273911102
0.005008499200604956
0.008737382749233134
-0.040528043389097546
0.05891357786253575
-0.01255744552862909
0.05641712194138157
-0.02131264875057582
0.03717982203231536
0.00923767879721015
0.0038582474474828737
-0.03610736372632254
0.046377636785275365
0.01611430810609526
-0.00347115653752217
0.04643749949107694
0.0034069306689814127
0.08499252266502397
0.039102966151976344
-0.012719579838733433
0.0522454572258079
0.002340630174148377
0.07714967078366058
0.0031407062760434603
-0.0030465140642990654
0.0036141653752087585
0.015365641656844453
0.059588894633378936
0.011263727717018163
-0.004104420192499196
-0.018979231579565232
0.030218511375714248
-0.021320966562058914
-0.04495501238335856
-0.03624024770408693
-0.017881830937860384
-0.004785937361878322
0.04050661807139563
-0.02220167506703677
0.04604340201799079
-0.06298870335180388
0.10133087695532332
-0.06101630481615748
0.00761873224973606
-0.008368462207365807
-0.03020441237857434
0.026015718636345768
0.04066208323824785
-0.006622542699098677
0.04651480430630334
0.0024637573847269057
-0.04091461410556405
-0.0030456733002244916
-0.020288310241875763
0.017700568138657825
-0.01535257277928268
-0.002853199821128143
-0.0417445170089051
0.04112909492787409
-0.013678016286963458
-0.04113373503030997
0.10121055007107081
-0.05434516822777072
0.019516550223158197
-0.0832179061924532
0.011866259601570209
0.007235135385317233
-0.009706844949391261
-0.0524440004021012
-0.03302042096742092
-0.03102156825005109
-0.045158601122711715
-0.036463301710244554
0.055197149665547146
0.015046500468202495
0.05118567885918484
-0.03803238860469725
-0.01658858606521844
-0.06680959824795678
-0.04578675893434508
-0.011196659526753033
-0.01617716741817948
0.0683597605969621
0.004155637441225785
-0.010196149374710504
0.017671638156900617
0.0010337904900920237
-0.04175782833068651
-0.024111067075490353
0.053806033947204124
0.050145680806322375
0.009893666089852914
0.03921097044766595
0.06318497055355049
-0.016989450469913445
0.007089032299947159
0.008503496267561193
-0.03180052044972948
0.01717044723363571
-0.043987616116999036
0.003933076352752828
-0.010342841993830969
0.016521042958181773
-0.052110046672424123
-0.020042287515148242
0.07242939025512227
-0.005186386572833337
0.002620929160750849
-0.025752745574158704
0.0017450356475671662
0.014606591789961428
-0.018290922391346984
-0.009596011553045177
-0.006402297180142013
0.011374516878697524
0.043481435969682514
-0.025743296102217463
0.03099925617349813
0.030946374004441255
0.009801244051651475
0.04160199048633401
0.0038103216570000847
0.00414678027067196
-0.006675094193919418
-0.010398607366802573
-0.008096082654859863
-0.07157004515373488
0.023087448261029386
-0.012394477038431202
-0.05649484141102518
0.03732007643174084
-0.03752085530529824
0.03305738984033393
-0.028521383553333304
0.03688029187653732
0.07303542395678833
-0.061348563081919216
-0.009806238785389164
0.0368003289832961
0.010757271912078103
0.01083448128167106
0.035215516855262204
-0.030340779108908634
-0.04934795997250754
-0.027454223766139263
0.0512904677751318
-0.029381017332264826
-0.05903685001430205
0.04449157697977871
-0.01969928505555389
-0.01726956763884986
-0.05361047521651046
0.020399566781006993
0.021844847046327522
-0.021171379071394155
-0.0459127866097026
-0.07277307761156726
0.02184839588090401
0.09986520312129059
0.015550881198448153
0.02339699740997512
0.005636969916137393
0.013445254015890647
-0.008962171436921592
0.011314947843594162
-0.030807955753017098
-0.047718972397198654
0.00427840991490658
0.003775470902280065
-0.04517009393244663
-0.02120890069503809
-0.01346434723357324
0.027530133970874223
0.006102598036113608
-0.006446541499673145
-0.061239072491753296
0.010400406123317817
0.020353817112213252
0.08454278831482202
0.01716667061459709
0.0355427190678298
0.035910020922005494
-0.06971931442884295
-0.004793000663777734
-0.006524820840095321
-0.017691135577116598
0.03294360750841134
0.06256618370395531
-0.0355565239993048
-0.005999776742187373
0.016346058221953202
-0.029982746435760262
-0.0814052375599827
-0.008271654835331571
-0.04246502728162189
-0.07455611363686288
0.03468834734109043
0.06290312654929206
0.020343317204257944
0.01599861258139914
0.016695500563358147
-0.002984921737805748
0.01727573045308953
-0.005050073364708014
-0.028882114694324713
0.049140453283387696
0.028798521245009694
0.10220280958131445
-0.031484895195373605
-0.05558273696933937
0.0516062765874307
-0.004045752135535158
0.05218412480974882
0.07746208048200547
-0.05279344801491288
-0.032978015420652124
-0.06466494039705113
-0.005792255930382775
-0.027733230645415632
-0.07464932416117549
0.00384250229185968
0.04930140172798884
-0.03731074620789766
0.04789909805539743
0.026802745157707586
-0.00248276995990515
-0.0406861663453886
-0.018047010627083748
0.08186136471300554
-0.014970799800162887
0.02190818989593197
-0.010549979362370399
-0.04224680221775119
0.026527725460020364
0.06343262468760193
0.04096664004576387
0.06188634522640305
0.00550064131902156
-9.834981557696919e-05
0.020295402969086284
-0.00856235611882425
-0.01890326999955062
-0.06130151955844404
0.039168196001877244
0.0019109698437143005
-0.061609567445688164
-0.06993887333131682
0.0681406410689378
0.041369357046663106
0.014746261567199452
-0.0564229792289677
-0.010183913953115962
-0.039695346615831135
-0.01401673386694573
-0.008341315805018639
-0.027895463342640626
-0.05360651732829102
0.028411742992099764
0.009590266754349411
0.021098145323200968
0.04364993074432857
0.04242105396341243
0.06397039360759538
0.03561023831109613
0.017658305622495818
-0.01585944031884092
-0.04960505186702679
0.022702269534116748
-0.011233100463370574
0.07683178039937806
-0.019405883590261366
0.010772249991815351
0.010948621255218975
-0.05666284155736817
-0.029426814155019194
-0.07641001056854363
0.010557831550784748
0.007180029248572599
0.028606267746187866
-0.027891873157237068
-0.04075098362042255
-0.01238317980318781
0.01589446042490376
-0.04165362037084844
0.01468648745371905
0.018855887909002732
0.031550634544111576
-0.013748679564834606
0.003351451921281736
0.04725007292783785
-0.026921866158436305
-0.0014709085694843518
0.07715486154526896
0.011694102558448294
0.03627975912789465
0.011556860458671112
0.038728224035349645
0.018641549536601
-0.008439223683160054
